svm_type c_svc
kernel_type rbf
gamma 0.0078125
nr_class 3
total_sv 10292
rho 6.32175 3.9931 1.26218
label 3 1 2
nr_sv 5118 3361 1813
SV
4.767795976767236 0 36309:1 54848:1 72826:1 72846:1 72864:1 72910:1 79669:1 98752:1 
2.441643866308259 0 36421:1 54923:1 72826:1 72844:1 72864:1 72918:1 79698:1 98752:1 
2.753842315644246 0 36281:1 54978:1 72831:1 72845:1 72864:1 73048:1 79808:1 98752:1 
4.16719727882912 0 36471:1 54831:1 72824:1 72846:1 72864:1 73079:1 79836:1 98751:1 
0 1.293833150744025 63:1 17280:1 36511:1 55045:1 72795:1 72807:1 72824:1 72845:1 72932:1 79694:1 98753:1 
0 12.52350811743368 274:1 17163:1 36275:1 72785:1 72811:1 72829:1 73150:1 79925:1 98752:1 
0 9.612037793859121 19:1 17478:1 36464:1 54977:1 72786:1 72805:1 72836:1 72846:1 72880:1 79642:1 98757:1 
0.7152905702878612 0 36597:1 54813:1 72826:1 72847:1 72864:1 72903:1 79663:1 98752:1 
0 2.685407494031675 215:1 17519:1 36630:1 54810:1 72787:1 72805:1 72824:1 72844:1 72881:1 79643:1 98759:1 
15.11827180692078 0 36579:1 54849:1 72826:1 72844:1 72864:1 72903:1 79663:1 98752:1 
4.722414076099528 0 36740:1 54866:1 72826:1 72854:1 72864:1 73315:1 80111:1 98752:1 
6.916374077712251 0 36751:1 55063:1 72826:1 72847:1 72864:1 72910:1 80122:1 98752:1 
9.845805590828268 0 36755:1 54822:1 72826:1 72853:1 72864:1 73238:1 80023:1 98752:1 
10.97786549324135 1.722809641679178 36764:1 54923:1 72826:1 72844:1 72864:1 73337:1 80136:1 98752:1 
29.95752790596571 0 10:1 17699:1 36281:1 54817:1 72784:1 72809:1 72831:1 72850:1 72864:1 73375:1 80182:1 98752:1 
0 6.439458146387819 9:1 17511:1 36275:1 72786:1 72805:1 72829:1 73392:1 80212:1 98752:1 
0 7.105241500032673 62:1 17490:1 36275:1 72786:1 72805:1 72829:1 73411:1 80231:1 98752:1 
0 1.874428242528989 568:1 17772:1 36309:1 54820:1 72785:1 72805:1 72826:1 72851:1 73041:1 79801:1 98755:1 
0 1.194619237415423 17479:1 36281:1 55000:1 72817:1 72831:1 72856:1 72864:1 72965:1 79727:1 98765:1 
0 6.136932026623776 617:1 17828:1 36510:1 72787:1 72805:1 72829:1 73488:1 80307:1 98751:1 
0 4.878546782883563 312:1 17814:1 36926:1 54830:1 72787:1 72805:1 72824:1 72847:1 72881:1 79643:1 98759:1 
0 3.059378736873662 19:1 17407:1 36275:1 72786:1 72805:1 72829:1 73522:1 80307:1 98751:1 
1.67933900624351 0 36309:1 55509:1 72826:1 72846:1 72864:1 72968:1 80368:1 98752:1 
0 38.52187858566671 41:1 17898:1 36275:1 72786:1 72805:1 72829:1 73549:1 80381:1 98752:1 
15.90423222011426 11.07184068673915 36553:1 55525:1 72826:1 72848:1 72864:1 73551:1 80372:1 98752:1 
13.30029264106204 0 36275:1 72829:1 72864:1 73040:1 80390:1 98752:1 
0.4132463315475073 0 36275:1 72829:1 72864:1 72986:1 80395:1 98752:1 
10.32541064522721 0 37028:1 54821:1 72826:1 72852:1 72864:1 73571:1 80383:1 98752:1 
4.832305375525562 0 36272:1 54849:1 72826:1 72844:1 72864:1 72903:1 80410:1 98752:1 
1.582540594161747 0 37060:1 54866:1 72826:1 72854:1 72864:1 73057:1 80102:1 98752:1 
1.078997794701136 0 36425:1 55053:1 72826:1 72854:1 72864:1 72903:1 79663:1 98752:1 
2.227381795143414 0 760:1 17998:1 36275:1 72787:1 72809:1 72829:1 72864:1 73619:1 80481:1 98752:1 
0 0.9630234444530457 789:1 18033:1 36277:1 55641:1 72785:1 72805:1 72825:1 72845:1 73644:1 80516:1 98752:1 
5.751693512824107 0 37137:1 55642:1 72824:1 72846:1 72864:1 73404:1 80225:1 98751:1 
0 0.2384388715378091 14:1 17743:1 36804:1 55369:1 72791:1 72804:1 72826:1 72858:1 73646:1 80519:1 98752:1 
0 3.041949415574017 796:1 17168:1 37141:1 55371:1 72787:1 72806:1 72824:1 72859:1 73650:1 80510:1 98756:1 
2.230675153789974 0 307:1 17998:1 36275:1 72787:1 72809:1 72829:1 72864:1 73619:1 80481:1 98752:1 
13.23122849949808 0 36282:1 55710:1 72832:1 72845:1 72864:1 73698:1 80588:1 98752:1 
0 0.2669588102049386 851:1 17163:1 37207:1 55254:1 72785:1 72811:1 72824:1 72846:1 73699:1 80589:1 98752:1 
0 0.1539309162886202 14:1 18107:1 36731:1 54813:1 72791:1 72805:1 72826:1 72847:1 73365:1 80590:1 98752:1 
0 0.9896989433704163 190:1 17479:1 36422:1 55166:1 72796:1 72817:1 72826:1 72848:1 72864:1 73353:1 80157:1 98755:1 
0 0.6848865579031511 190:1 17479:1 37081:1 54977:1 72796:1 72817:1 72828:1 72846:1 72864:1 73005:1 79767:1 98759:1 
0.9178111393826396 0 36515:1 54813:1 72826:1 72847:1 72864:1 73300:1 80087:1 98752:1 
0 1.530988644835661 568:1 18287:1 36309:1 54815:1 72785:1 72805:1 72826:1 72849:1 72972:1 79733:1 98755:1 
0 0.8854216980112188 14:1 17729:1 36364:1 55894:1 72791:1 72805:1 72826:1 72846:1 72894:1 79656:1 98756:1 
0 2.846861571127633 50:1 17490:1 36275:1 72786:1 72805:1 72829:1 73829:1 80804:1 98752:1 
1.070575236738591 0 777:1 17168:1 36282:1 54898:1 72786:1 72806:1 72832:1 72846:1 73835:1 80815:1 98752:1 
0 0.2495457230268648 190:1 18316:1 36275:1 72796:1 72805:1 72829:1 73713:1 80618:1 98754:1 
0 0.3682376596984525 50:1 18316:1 37453:1 54815:1 72792:1 72805:1 72826:1 72849:1 73285:1 80074:1 98752:1 
29.74081701749746 4.994906305361742 1067:1 17588:1 36282:1 55955:1 72785:1 72806:1 72832:1 72845:1 72864:1 73678:1 80844:1 98752:1 
0 3.134858574769957 402:1 18362:1 37459:1 55956:1 72786:1 72805:1 72824:1 72845:1 72881:1 79643:1 98759:1 
9.248523992915741 0 36281:1 54976:1 72831:1 72845:1 72864:1 73489:1 80850:1 98752:1 
1.300628873944022 0 7:1 18394:1 36346:1 55956:1 72788:1 72807:1 72825:1 72845:1 72864:1 73877:1 80877:1 98752:1 
0 0.7429224104254446 29:1 17943:1 36275:1 72789:1 72805:1 72829:1 73895:1 80899:1 98752:1 
39.40085869698464 0 137:1 17178:1 37519:1 54857:1 72789:1 72809:1 72824:1 72853:1 72864:1 73901:1 80905:1 98752:1 
10.52337072319889 19.03930959308142 29:1 18423:1 36320:1 56000:1 72789:1 72805:1 72833:1 72845:1 72864:1 73256:1 80906:1 98752:1 
0 3.735397898243093 1079:1 18396:1 37525:1 56019:1 72787:1 72805:1 72824:1 72845:1 72932:1 79694:1 98753:1 
0 1.268120563167055 18358:1 36464:1 56020:1 72805:1 72836:1 72848:1 73907:1 80112:1 98754:1 
0 1.077354603898786 29:1 18435:1 37531:1 54815:1 72786:1 72805:1 72824:1 72849:1 72881:1 79643:1 98759:1 
0 5.69749122793065 1101:1 18403:1 36362:1 54830:1 72785:1 72805:1 72833:1 72847:1 73087:1 80164:1 98752:1 
3.577006962201687 0 178:1 17158:1 36282:1 56042:1 72789:1 72806:1 72832:1 72845:1 72864:1 73877:1 80877:1 98752:1 
0 14.75186565488807 34:1 17619:1 36282:1 55741:1 72786:1 72805:1 72832:1 72846:1 73404:1 80225:1 98751:1 
0 2.612820055799788 19:1 17682:1 37502:1 54831:1 72786:1 72805:1 72824:1 72846:1 72881:1 79643:1 98759:1 
0 4.836140166774992 1133:1 17163:1 36282:1 56070:1 72785:1 72811:1 72832:1 72845:1 73604:1 80802:1 98752:1 
12.98561755236615 0 36425:1 54897:1 72826:1 72847:1 72864:1 73917:1 80917:1 98752:1 
0 15.22298381453226 19:1 17619:1 36275:1 72786:1 72805:1 72829:1 73402:1 80222:1 98751:1 
0 0.8674933063510282 34:1 18405:1 37025:1 54897:1 72786:1 72805:1 72833:1 72847:1 73977:1 80996:1 98752:1 
19.40647574314963 0 235:1 17246:1 36277:1 56108:1 72787:1 72807:1 72825:1 72845:1 72864:1 73980:1 79751:1 98752:1 
0 3.539307903055573 1109:1 18409:1 36275:1 72785:1 72805:1 72829:1 72939:1 79693:1 98754:1 
0.260608580008085 0 7:1 17632:1 36309:1 54861:1 72788:1 72812:1 72826:1 72854:1 73983:1 81004:1 98752:1 
11.91897331220009 0 17747:1 36436:1 54857:1 72821:1 72827:1 72853:1 72864:1 72881:1 79643:1 98752:1 
21.20550460647861 0 36281:1 55478:1 72831:1 72850:1 72864:1 73238:1 81020:1 98752:1 
0 15.1265611442769 236:1 18358:1 36275:1 72793:1 72805:1 72829:1 72904:1 79629:1 98752:1 
0 13.35204811104274 9:1 18525:1 37525:1 54999:1 72786:1 72805:1 72824:1 72845:1 72886:1 79648:1 98753:1 
0 2.115353269097938 34:1 17856:1 36275:1 72786:1 72809:1 72829:1 73625:1 79649:1 98752:1 
25.47376617670711 0 36325:1 55021:1 72828:1 72845:1 72864:1 73464:1 80546:1 98752:1 
8.598432311665382 0 36281:1 54861:1 72831:1 72854:1 72864:1 74064:1 81117:1 98765:1 
0 6.068352857149217 18358:1 36668:1 54815:1 72805:1 72824:1 72849:1 72864:1 74068:1 80152:1 98754:1 
22.84997307303647 0 36553:1 54826:1 72826:1 72844:1 72864:1 74087:1 81145:1 98752:1 
23.8486965573864 0 10:1 17207:1 36287:1 56256:1 72784:1 72809:1 72825:1 72845:1 72864:1 74100:1 81163:1 98752:1 
0 38.30434962958183 23:1 17859:1 36281:1 54876:1 72787:1 72805:1 72831:1 72848:1 73069:1 79829:1 98752:1 
0 7.401670661870291 59:1 18694:1 36586:1 56113:1 72793:1 72805:1 72833:1 72845:1 73123:1 79890:1 98752:1 
6.591233852430909 0 262:1 17184:1 36283:1 54968:1 72786:1 72806:1 72833:1 72850:1 73579:1 79649:1 98752:1 
0 1.302117738213938 19:1 18525:1 36275:1 72786:1 72805:1 72829:1 73762:1 80302:1 98752:1 
26.34490969712181 0 36281:1 54970:1 72831:1 72847:1 72864:1 74124:1 81197:1 98752:1 
0 0.06182960039751208 19:1 18719:1 36287:1 56293:1 72786:1 72805:1 72825:1 72845:1 72881:1 79643:1 98759:1 
31.92859174110013 12.05382640333398 63:1 18723:1 36281:1 54857:1 72795:1 72807:1 72831:1 72853:1 72864:1 74133:1 81207:1 98752:1 
0 2.021122740429129 1280:1 17214:1 36442:1 54815:1 72785:1 72806:1 72824:1 72849:1 74135:1 81209:1 98756:1 
8.563309463227656 0 77:1 18729:1 36281:1 54878:1 72784:1 72809:1 72831:1 72854:1 72864:1 73564:1 81213:1 98752:1 
29.58433199375187 0 1411:1 17162:1 37823:1 54821:1 72789:1 72810:1 72824:1 72852:1 72864:1 74139:1 81216:1 98756:1 
0 8.346852119551109 13:1 18758:1 37646:1 54821:1 72790:1 72805:1 72824:1 72852:1 72880:1 79642:1 98758:1 
0 5.446100812814976 7:1 18760:1 37849:1 54820:1 72788:1 72805:1 72826:1 72849:1 72864:1 72933:1 79695:1 98762:1 
0 0.5565452582684393 14:1 18768:1 37857:1 54821:1 72791:1 72805:1 72824:1 72852:1 72881:1 79643:1 98759:1 
28.56828291699517 0 36289:1 54909:1 72825:1 72848:1 72864:1 74178:1 81273:1 98752:1 
0 6.146976861265716 1405:1 18189:1 36320:1 54897:1 72789:1 72805:1 72833:1 72847:1 73817:1 81279:1 98752:1 
0 1.763630067995255 371:1 18374:1 37885:1 54820:1 72787:1 72805:1 72824:1 72851:1 74113:1 81281:1 98752:1 
0 13.12554293225847 1076:1 18798:1 36281:1 54941:1 72785:1 72805:1 72831:1 72852:1 74182:1 81282:1 98752:1 
0 12.98964220787326 14:1 18806:1 37893:1 54831:1 72791:1 72805:1 72824:1 72846:1 72886:1 79648:1 98753:1 
0.3173175837930788 0 37894:1 54869:1 72825:1 72844:1 72864:1 72980:1 81291:1 98752:1 
0 0.3832783343616519 21:1 18189:1 36282:1 56366:1 72786:1 72805:1 72832:1 72845:1 73819:1 80789:1 98752:1 
5.74698184009224 0 36785:1 54820:1 72826:1 72851:1 72864:1 73233:1 80993:1 98752:1 
1.679238998624789 0 534:1 17170:1 36282:1 56018:1 72787:1 72806:1 72832:1 72845:1 74194:1 81299:1 98752:1 
0 7.06300851687819 21:1 18816:1 37525:1 55502:1 72786:1 72805:1 72824:1 72845:1 72881:1 79643:1 98759:1 
0 70.076985094268 14:1 18430:1 37902:1 54815:1 72791:1 72805:1 72838:1 72849:1 74195:1 80361:1 98752:1 
0 5.397427418185524 1129:1 17879:1 36275:1 72785:1 72805:1 72829:1 74196:1 81300:1 98766:1 
0 3.315255986759101 17479:1 36287:1 56373:1 72817:1 72825:1 72845:1 72864:1 73004:1 81289:1 98752:1 
0 2.495863174951904 309:1 18806:1 37893:1 54831:1 72797:1 72805:1 72824:1 72846:1 72886:1 79648:1 98753:1 
2.489761387711317 0 17350:1 36343:1 55384:1 72816:1 72830:1 72845:1 72864:1 72948:1 79710:1 98751:1 
17.49522198630204 0 36275:1 72829:1 72864:1 74200:1 81309:1 98752:1 
16.30594394559493 0 36849:1 54911:1 72830:1 72846:1 72864:1 73366:1 80173:1 98752:1 
0 9.858807876687203 1015:1 17253:1 37614:1 54815:1 72787:1 72804:1 72824:1 72849:1 74016:1 81125:1 98756:1 
0 16.43821341404497 100:1 18642:1 36275:1 72784:1 72809:1 72829:1 73099:1 81001:1 98752:1 
0 31.48516596524351 34:1 18836:1 37922:1 54820:1 72786:1 72805:1 72824:1 72851:1 72886:1 79648:1 98753:1 
48.03468151417809 0.8787620850998248 591:1 17184:1 37953:1 54815:1 72793:1 72806:1 72824:1 72849:1 72864:1 74229:1 81351:1 98752:1 
18.77389873857663 0 36292:1 54817:1 72826:1 72850:1 72864:1 73995:1 81349:1 98752:1 
0 2.01614637126609 62:1 18358:1 37620:1 54815:1 72786:1 72805:1 72824:1 72849:1 72881:1 79643:1 98759:1 
0 38.85949408614901 23:1 18844:1 36311:1 54870:1 72787:1 72805:1 72825:1 72855:1 73914:1 80922:1 98752:1 
0 1.858754274806267 91:1 18358:1 36317:1 55664:1 72792:1 72805:1 72826:1 72846:1 73458:1 79846:1 98756:1 
21.67124447132827 0 17479:1 36292:1 55937:1 72817:1 72826:1 72848:1 72864:1 74125:1 81198:1 98752:1 
0 0.7311813447147313 1606:1 17163:1 37734:1 56510:1 72785:1 72811:1 72828:1 72845:1 72972:1 79733:1 98751:1 
0 13.94796124252081 14:1 17253:1 38033:1 54815:1 72791:1 72804:1 72824:1 72849:1 74016:1 81125:1 98756:1 
0 8.450307299626225 100:1 18642:1 36275:1 72784:1 72809:1 72829:1 73742:1 81429:1 98752:1 
26.47463141517936 13.76965350204101 17479:1 36281:1 55000:1 72817:1 72831:1 72856:1 72864:1 74280:1 81431:1 98752:1 
0 18.03724268523579 190:1 17479:1 36281:1 55000:1 72796:1 72817:1 72831:1 72856:1 72864:1 74282:1 81432:1 98765:1 
2.829978532717416 0 190:1 17479:1 37434:1 54815:1 72796:1 72817:1 72829:1 72849:1 72864:1 74287:1 81438:1 98765:1 
2.418608033478367 0 36281:1 56097:1 72831:1 72845:1 72864:1 73987:1 81009:1 98765:1 
8.683653712731335 0 71:1 17168:1 38048:1 55216:1 72793:1 72806:1 72826:1 72845:1 73063:1 79823:1 98752:1 
5.698695828244713 10.68603271994158 17225:1 36275:1 72804:1 72829:1 72865:1 73252:1 81456:1 98752:1 
0 1.770109183294975 59:1 18322:1 36281:1 54941:1 72793:1 72805:1 72831:1 72852:1 72878:1 79699:1 98756:1 
0 1.139913618262514 63:1 17626:1 36918:1 55803:1 72795:1 72807:1 72828:1 72845:1 72948:1 79710:1 98751:1 
2.171823174264463 0 529:1 17184:1 37513:1 54872:1 72785:1 72806:1 72826:1 72850:1 72864:1 72933:1 79695:1 98762:1 
0 0.5423680719152474 1680:1 17158:1 36275:1 72785:1 72806:1 72829:1 72864:1 73490:1 79710:1 98755:1 
4.544955744874899 8.451893656208449 135:1 17202:1 36309:1 55757:1 72785:1 72812:1 72826:1 72846:1 72864:1 72948:1 79710:1 98755:1 
15.18594215354271 0 50:1 17170:1 36613:1 54906:1 72786:1 72812:1 72828:1 72846:1 72864:1 72948:1 79710:1 98755:1 
7.705898646742749 0 290:1 17244:1 36309:1 55208:1 72786:1 72812:1 72826:1 72847:1 72864:1 72948:1 79710:1 98755:1 
0 30.63685124172951 29:1 18049:1 36275:1 72786:1 72805:1 72829:1 72864:1 73403:1 80224:1 98751:1 
6.850913652385717 0 1687:1 17178:1 38118:1 56594:1 72785:1 72809:1 72828:1 72845:1 72864:1 74109:1 81514:1 98752:1 
28.08073388511468 6.343888114994687 1690:1 17163:1 38121:1 56217:1 72785:1 72811:1 72828:1 72845:1 72864:1 74109:1 81517:1 98752:1 
0 1.889262915100203 14:1 19034:1 36759:1 54815:1 72791:1 72805:1 72824:1 72849:1 72878:1 81518:1 98756:1 
8.30739498613929 0 38126:1 54815:1 72826:1 72849:1 72864:1 72869:1 80804:1 98752:1 
11.23102978459334 6.270834974967614 17172:1 38140:1 55043:1 72807:1 72824:1 72849:1 72864:1 72948:1 79710:1 98755:1 
16.72900854431356 0 36281:1 56615:1 72831:1 72845:1 72864:1 74346:1 81539:1 98752:1 
0 1.759093426621213 1106:1 18979:1 38161:1 54820:1 72787:1 72805:1 72824:1 72851:1 72913:1 79672:1 98753:1 
2.131297189840272 0 1734:1 17202:1 38171:1 54868:1 72785:1 72812:1 72828:1 72846:1 72864:1 72948:1 79710:1 98755:1 
0 3.185029339037474 387:1 19089:1 36510:1 72789:1 72805:1 72829:1 73178:1 81573:1 98752:1 
0 3.555978734125425 34:1 18037:1 36275:1 72786:1 72805:1 72829:1 73582:1 79780:1 98752:1 
9.928828520834722 0 13:1 19138:1 38223:1 54816:1 72794:1 72807:1 72834:1 72844:1 72864:1 72948:1 79710:1 98755:1 
9.470464012515521 0 14:1 17158:1 37129:1 54899:1 72791:1 72806:1 72824:1 72853:1 72864:1 74386:1 81623:1 98756:1 
12.17566639875339 27.60498284185598 23:1 19141:1 36281:1 54941:1 72787:1 72805:1 72831:1 72852:1 72864:1 73149:1 81625:1 98752:1 
5.314618638556049 0 50:1 19144:1 36275:1 72792:1 72807:1 72829:1 72864:1 73490:1 79710:1 98755:1 
3.288648558118329 0 230:1 17244:1 36292:1 56704:1 72787:1 72812:1 72826:1 72845:1 72864:1 72948:1 79710:1 98755:1 
5.763569259475583 0 1793:1 17190:1 36440:1 54927:1 72785:1 72807:1 72830:1 72845:1 72864:1 72948:1 79710:1 98755:1 
0 6.490402725468632 100:1 19148:1 36281:1 54830:1 72784:1 72809:1 72831:1 72850:1 73063:1 80341:1 98752:1 
0 7.425881509691849 137:1 17156:1 36287:1 54908:1 72789:1 72808:1 72825:1 72850:1 72864:1 72948:1 79710:1 98755:1 
0 16.96950762244528 19:1 17444:1 36275:1 72786:1 72805:1 72829:1 72971:1 81667:1 98752:1 
0 6.47954652888765 431:1 17605:1 36515:1 55323:1 72785:1 72805:1 72826:1 72846:1 73304:1 80094:1 98753:1 
11.24269474804129 0 1836:1 17244:1 36859:1 54813:1 72787:1 72812:1 72826:1 72847:1 72864:1 72948:1 79710:1 98755:1 
0 0.3532531496496215 1837:1 17214:1 38240:1 54885:1 72785:1 72806:1 72824:1 72847:1 72948:1 79710:1 98751:1 
0 22.65238516856063 77:1 19155:1 36365:1 56749:1 72784:1 72805:1 72834:1 72846:1 72864:1 72948:1 79710:1 98755:1 
0 3.619403512934755 946:1 17163:1 36311:1 54870:1 72785:1 72811:1 72825:1 72855:1 73150:1 79925:1 98752:1 
0 1.454199800465621 62:1 19205:1 36313:1 54828:1 72786:1 72805:1 72832:1 72844:1 74203:1 81689:1 98752:1 
0 3.244094426995488 1820:1 19208:1 36287:1 56768:1 72786:1 72805:1 72825:1 72845:1 72898:1 81692:1 98752:1 
24.05442685352029 0 36347:1 54923:1 72826:1 72844:1 72864:1 72869:1 80804:1 98752:1 
0 1.274178473087524 1883:1 17184:1 37126:1 56745:1 72785:1 72806:1 72826:1 72845:1 72864:1 72933:1 79695:1 98762:1 
0.1036973337415416 0 37479:1 56819:1 72824:1 72846:1 72864:1 73894:1 80804:1 98752:1 
0 1.093565752339035 29:1 19269:1 38284:1 54815:1 72786:1 72805:1 72824:1 72849:1 72881:1 79643:1 98759:1 
16.36223896626437 0 36735:1 55794:1 72826:1 72844:1 72864:1 73058:1 80420:1 98752:1 
0.4910337616261365 0 1932:1 17244:1 37251:1 54817:1 72789:1 72812:1 72826:1 72850:1 72864:1 72948:1 79710:1 98755:1 
5.117568523692593 0 804:1 17228:1 36946:1 56842:1 72785:1 72806:1 72830:1 72845:1 72864:1 73403:1 80224:1 98751:1 
11.08495263433755 0 36510:1 72829:1 72864:1 72910:1 80609:1 98752:1 
5.282854919594607 0 892:1 17350:1 38376:1 56582:1 72793:1 72816:1 72824:1 72846:1 72864:1 73131:1 79899:1 98754:1 
32.86408509740377 0 7:1 17172:1 38221:1 54815:1 72788:1 72807:1 72824:1 72849:1 72864:1 73403:1 80224:1 98751:1 
1.826090801457509 0 262:1 17168:1 36282:1 54958:1 72786:1 72806:1 72832:1 72846:1 74054:1 81465:1 98752:1 
0 2.734916525209374 17159:1 36287:1 54836:1 72804:1 72825:1 72845:1 73604:1 80802:1 98752:1 
34.83265137557686 0 36978:1 54899:1 72826:1 72853:1 72864:1 73345:1 81790:1 98752:1 
2.544130161529144 0 36591:1 54866:1 72826:1 72854:1 72864:1 74481:1 81839:1 98752:1 
1.856136888255131 0 36922:1 54830:1 72826:1 72847:1 72864:1 72911:1 79670:1 98754:1 
0 5.090038283745924 2023:1 17253:1 38466:1 54815:1 72786:1 72804:1 72824:1 72849:1 74016:1 81125:1 98756:1 
0 8.450307299626338 100:1 18642:1 36275:1 72784:1 72809:1 72829:1 73742:1 81866:1 98752:1 
10.53191518821221 20.57012537239353 36553:1 54826:1 72826:1 72844:1 72864:1 73152:1 80959:1 98752:1 
0 4.576528645466415 29:1 17215:1 36346:1 56926:1 72786:1 72815:1 72825:1 72848:1 73920:1 81873:1 98754:1 
2.514091644575299 0 9:1 17350:1 36784:1 55000:1 72786:1 72816:1 72827:1 72856:1 72864:1 74536:1 81364:1 98756:1 
0 3.645928603801832 190:1 18881:1 36464:1 54815:1 72796:1 72809:1 72836:1 72849:1 73492:1 80157:1 98755:1 
0.6950573929196334 0 335:1 17163:1 36875:1 54828:1 72784:1 72811:1 72824:1 72844:1 74426:1 80935:1 98752:1 
0 1.405914435401874 923:1 18866:1 36383:1 55019:1 72787:1 72805:1 72824:1 72846:1 72866:1 79628:1 98751:1 
10.66190886066987 3.649044557208358 1637:1 17834:1 36275:1 72785:1 72807:1 72829:1 72864:1 73125:1 81963:1 98752:1 
0 2.338247256377111 147:1 18322:1 36281:1 56967:1 72787:1 72805:1 72831:1 72854:1 72878:1 81891:1 98756:1 
1.319897376719587 0 37163:1 57008:1 72826:1 72845:1 72864:1 74056:1 81979:1 98752:1 
9.733626039931663 0 2140:1 17162:1 36753:1 54843:1 72787:1 72814:1 72824:1 72844:1 72864:1 74068:1 80152:1 98754:1 
0 4.092490973378646 430:1 19454:1 38594:1 54820:1 72787:1 72805:1 72824:1 72851:1 72876:1 79638:1 98753:1 
24.7120383528128 0 13:1 17194:1 36320:1 55185:1 72790:1 72811:1 72833:1 72845:1 72864:1 74569:1 82012:1 98752:1 
0.4024336652685009 0 18671:1 37052:1 54866:1 72817:1 72826:1 72854:1 72864:1 74166:1 81251:1 98752:1 
4.771931907137018 0 18671:1 36936:1 55043:1 72817:1 72830:1 72849:1 72864:1 74056:1 82027:1 98752:1 
0 7.26192404602349 14:1 17779:1 36292:1 57120:1 72791:1 72805:1 72826:1 72848:1 73488:1 80307:1 98751:1 
11.65065893098333 0 36276:1 55361:1 72826:1 72854:1 72864:1 73798:1 80437:1 98752:1 
18.78387207316596 0 36292:1 54817:1 72826:1 72850:1 72864:1 74585:1 80261:1 98752:1 
6.155168748293649 0 2200:1 17162:1 38665:1 54971:1 72785:1 72814:1 72826:1 72850:1 72864:1 73220:1 81005:1 98752:1 
50.8127525978123 0 36292:1 55864:1 72826:1 72854:1 72864:1 73216:1 81937:1 98752:1 
0 3.748537650466794 963:1 19615:1 38696:1 54820:1 72786:1 72805:1 72824:1 72851:1 72905:1 79664:1 98753:1 
10.03878997862067 0 2243:1 17192:1 36281:1 55066:1 72785:1 72806:1 72829:1 72846:1 72864:1 73473:1 82119:1 98752:1 
0 6.11052768564652 14:1 18243:1 36275:1 72791:1 72805:1 72829:1 74618:1 82121:1 98752:1 
10.27081232170805 0 7:1 17172:1 36520:1 54820:1 72788:1 72807:1 72834:1 72851:1 72864:1 73630:1 82124:1 98756:1 
0 4.14811023321406 92:1 17546:1 36275:1 72786:1 72805:1 72829:1 74626:1 79888:1 98752:1 
0 15.15937676390076 1190:1 19481:1 36275:1 72793:1 72805:1 72829:1 72995:1 82144:1 98752:1 
20.71413019787279 9.289506138529646 7:1 17172:1 36311:1 55185:1 72788:1 72807:1 72825:1 72845:1 72864:1 74569:1 82012:1 98752:1 
0 1.582432416169178 2187:1 17253:1 36288:1 54821:1 72787:1 72808:1 72824:1 72852:1 73008:1 79770:1 98753:1 
0 2.162946687909401 100:1 17290:1 36282:1 57211:1 72788:1 72806:1 72832:1 72846:1 74283:1 79649:1 98752:1 
11.44303735082686 0 36847:1 54816:1 72826:1 72844:1 72864:1 73523:1 80028:1 98752:1 
13.69684691610586 0 23:1 17981:1 36287:1 57207:1 72787:1 72813:1 72825:1 72845:1 72864:1 74641:1 82012:1 98752:1 
1.196777859900943 0 36292:1 55549:1 72826:1 72844:1 72864:1 74644:1 82152:1 98752:1 
0 3.06595869465053 34:1 17683:1 36675:1 54826:1 72786:1 72805:1 72824:1 72844:1 72881:1 79643:1 98759:1 
0 13.03819874315613 19694:1 36776:1 54849:1 72805:1 72826:1 72844:1 74662:1 82196:1 98752:1 
6.591422220955498 1.336379469186052 19739:1 36287:1 57272:1 72804:1 72825:1 72845:1 72864:1 74526:1 82223:1 98752:1 
19.31108829542012 0 36275:1 72829:1 72864:1 73627:1 82225:1 98752:1 
23.82195942111858 0 36275:1 72829:1 72864:1 72974:1 82226:1 98752:1 
17.49852814376492 0 36275:1 72829:1 72864:1 74676:1 82227:1 98752:1 
23.84508317110545 0 36275:1 72829:1 72864:1 72974:1 82230:1 98752:1 
17.49203121509483 0 36275:1 72829:1 72864:1 74678:1 82231:1 98752:1 
47.17798257842985 9.649783735853806 77:1 17184:1 36275:1 72788:1 72806:1 72829:1 72864:1 73473:1 82119:1 98752:1 
0.8827206271358122 0 18671:1 38843:1 57293:1 72817:1 72837:1 72861:1 72864:1 73172:1 82155:1 98754:1 
2.811087004397052 0 36852:1 55273:1 72830:1 72846:1 72864:1 73289:1 82259:1 98752:1 
6.039930025982337 0 2113:1 19373:1 38848:1 54920:1 72785:1 72807:1 72830:1 72845:1 74691:1 82261:1 98752:1 
0 0.8255479128965042 76:1 19496:1 36275:1 72787:1 72805:1 72829:1 73702:1 80581:1 98752:1 
4.602670761950825 0 89:1 17491:1 37156:1 54821:1 72788:1 72813:1 72824:1 72852:1 72864:1 73131:1 82278:1 98751:1 
0 5.365177952523921 2394:1 17163:1 36275:1 72785:1 72811:1 72829:1 74496:1 82287:1 98752:1 
0 3.102166061833175 373:1 19694:1 36657:1 54895:1 72786:1 72805:1 72824:1 72846:1 72924:1 79685:1 98757:1 
12.77164552118539 0 18671:1 36275:1 72817:1 72829:1 72864:1 74716:1 82292:1 98752:1 
0 0.02949987894796057 258:1 19649:1 36817:1 54820:1 72787:1 72805:1 72824:1 72849:1 73304:1 80094:1 98753:1 
4.818900761594995 0 556:1 17158:1 36298:1 55941:1 72785:1 72806:1 72828:1 72845:1 72864:1 72992:1 79751:1 98752:1 
20.02914727929711 0 36852:1 54831:1 72830:1 72846:1 72864:1 73063:1 81174:1 98752:1 
0 5.621820265043679 19481:1 36389:1 54821:1 72805:1 72824:1 72852:1 72864:1 74068:1 80152:1 98754:1 
33.4057828270728 0 36292:1 54862:1 72826:1 72848:1 72864:1 73063:1 82331:1 98752:1 
2.267098470630499 0 34:1 17163:1 36777:1 54889:1 72786:1 72811:1 72824:1 72853:1 72864:1 74068:1 80152:1 98754:1 
3.641965289371626 0 375:1 17168:1 37616:1 54820:1 72785:1 72806:1 72824:1 72851:1 72864:1 73913:1 82353:1 98756:1 
0 1.771722802189333 62:1 17771:1 37637:1 54820:1 72786:1 72805:1 72834:1 72851:1 72971:1 82354:1 98752:1 
0 0.4893336403696869 85:1 17253:1 36309:1 54960:1 72788:1 72804:1 72826:1 72846:1 74583:1 82360:1 98752:1 
0.9377911231746006 0 38948:1 55063:1 72826:1 72847:1 72864:1 72903:1 80620:1 98752:1 
0 8.254563579737045 9:1 17332:1 36287:1 55703:1 72786:1 72809:1 72825:1 72845:1 72864:1 73023:1 82369:1 98752:1 
0 1.854325214375644 19:1 18548:1 38930:1 57265:1 72786:1 72805:1 72824:1 72846:1 72881:1 79643:1 98759:1 
0 1.823091572352971 1236:1 17163:1 38807:1 55139:1 72785:1 72811:1 72826:1 72844:1 72912:1 82346:1 98752:1 
0 5.541207856169896 21:1 19918:1 36346:1 57155:1 72786:1 72805:1 72825:1 72845:1 74028:1 79776:1 98752:1 
0 10.34467609169336 373:1 19861:1 36275:1 72786:1 72805:1 72829:1 72868:1 80847:1 98752:1 
20.13502388740103 0 36337:1 54826:1 72826:1 72844:1 72864:1 74796:1 82427:1 98752:1 
0 4.673838836156136 34:1 19581:1 36731:1 57466:1 72786:1 72805:1 72826:1 72845:1 72881:1 79643:1 98759:1 
0 4.886034631874677 341:1 19952:1 39020:1 54815:1 72793:1 72805:1 72824:1 72849:1 72881:1 79643:1 98759:1 
11.0444625780782 0 182:1 17190:1 39024:1 55302:1 72793:1 72807:1 72838:1 72847:1 72864:1 74803:1 79830:1 98763:1 
30.44098988837634 0 36272:1 54981:1 72826:1 72848:1 72864:1 73334:1 82398:1 98752:1 
19.13744454202249 0 18671:1 36510:1 72817:1 72829:1 72864:1 72978:1 82418:1 98752:1 
0.1640720399472261 0 36332:1 57482:1 72825:1 72845:1 72864:1 72987:1 82451:1 98752:1 
26.7911125912664 8.024413860874359 38619:1 55000:1 72824:1 72856:1 72864:1 73238:1 82243:1 98752:1 
0 1.133006886227384 14:1 19983:1 36281:1 55464:1 72791:1 72805:1 72829:1 72846:1 73006:1 79768:1 98756:1 
0 1.761181494515922 1786:1 17163:1 38548:1 55369:1 72785:1 72811:1 72824:1 72858:1 72886:1 79648:1 98753:1 
5.107970139054173 0 39094:1 54826:1 72824:1 72844:1 72864:1 73112:1 82512:1 98754:1 
4.326380390196903 0 34:1 17244:1 36881:1 57545:1 72786:1 72812:1 72824:1 72845:1 72864:1 74627:1 79700:1 98751:1 
15.66308933683236 23.42514997558328 100:1 17771:1 36309:1 55053:1 72784:1 72805:1 72826:1 72854:1 72864:1 73149:1 82529:1 98752:1 
17.70344407835114 0 37621:1 72829:1 72864:1 74182:1 81282:1 98752:1 
0 1.274328490386711 190:1 20072:1 36281:1 55000:1 72796:1 72805:1 72831:1 72856:1 73070:1 79830:1 98763:1 
0 0.089332192407971 34:1 17150:1 36275:1 72786:1 72805:1 72829:1 74866:1 82560:1 98752:1 
35.46911179701778 17.03708989499611 1879:1 17163:1 36304:1 54817:1 72785:1 72811:1 72825:1 72850:1 72864:1 74481:1 82577:1 98752:1 
28.43501961340775 0 10:1 17771:1 36332:1 54970:1 72784:1 72805:1 72825:1 72847:1 72864:1 73817:1 82584:1 98752:1 
60.24735286229411 0.8708528951702641 114:1 17168:1 36281:1 54821:1 72786:1 72806:1 72831:1 72852:1 72864:1 73211:1 82585:1 98752:1 
1.517986046533379 0 59:1 17162:1 36602:1 55295:1 72793:1 72814:1 72834:1 72845:1 72864:1 74068:1 80152:1 98754:1 
0 2.348937233931705 2671:1 17184:1 36856:1 55000:1 72785:1 72806:1 72840:1 72856:1 73627:1 82609:1 98752:1 
20.3960522372079 0 544:1 17350:1 36423:1 55000:1 72801:1 72816:1 72837:1 72856:1 72864:1 73181:1 79961:1 98765:1 
0 1.748232655655943 190:1 17480:1 36464:1 54820:1 72796:1 72818:1 72836:1 72849:1 73027:1 79786:1 98765:1 
0 5.149995835279563 1023:1 18188:1 36464:1 54820:1 72787:1 72809:1 72836:1 72849:1 72869:1 79754:1 98752:1 
6.263768049234606 0 36328:1 55792:1 72826:1 72845:1 72864:1 72869:1 79754:1 98752:1 
14.38048117879765 0 39216:1 54815:1 72826:1 72849:1 72864:1 74459:1 82165:1 98752:1 
17.25909633728497 0 36281:1 55106:1 72831:1 72853:1 72864:1 74900:1 82637:1 98752:1 
0.3883330608486792 0 2699:1 17162:1 36996:1 55369:1 72785:1 72814:1 72828:1 72858:1 73662:1 79668:1 98752:1 
0 15.02328081682858 100:1 20169:1 36677:1 54849:1 72784:1 72805:1 72824:1 72844:1 72881:1 79643:1 98759:1 
0.4823237405428269 0 2715:1 17162:1 39236:1 54843:1 72787:1 72814:1 72826:1 72844:1 73962:1 81354:1 98752:1 
7.321375454669373 0 36292:1 57681:1 72826:1 72845:1 72864:1 72869:1 79754:1 98752:1 
2.586534099931608 32.41639817809457 23:1 20170:1 36275:1 72787:1 72805:1 72829:1 72864:1 74197:1 82630:1 98752:1 
0 2.895512176084767 190:1 18571:1 36273:1 57688:1 72796:1 72805:1 72827:1 72846:1 72881:1 79643:1 98759:1 
0 4.988169275161033 830:1 17215:1 36464:1 54820:1 72785:1 72815:1 72836:1 72849:1 73884:1 80024:1 98754:1 
0 0.7447388876651787 19:1 20191:1 39255:1 54837:1 72786:1 72805:1 72824:1 72848:1 72878:1 82675:1 98756:1 
19.31839026409701 0 17350:1 39256:1 54846:1 72816:1 72824:1 72844:1 72864:1 72972:1 79733:1 98751:1 
7.914658138453827 0 17350:1 36275:1 72816:1 72829:1 72864:1 73002:1 82680:1 98756:1 
17.38167506158633 0 17350:1 36758:1 54860:1 72816:1 72834:1 72849:1 72864:1 72868:1 80620:1 98752:1 
0 1.301377514248373 2742:1 20208:1 36464:1 54958:1 72785:1 72805:1 72836:1 72846:1 72880:1 79642:1 98757:1 
0 0.4266543707787692 373:1 20227:1 36347:1 54944:1 72786:1 72805:1 72826:1 72844:1 72881:1 79643:1 98759:1 
27.57402329282917 12.16562761571382 163:1 20234:1 36854:1 57746:1 72784:1 72809:1 72839:1 72848:1 72864:1 73962:1 82718:1 98752:1 
0 0.9134285587162461 1771:1 20237:1 39300:1 54826:1 72786:1 72805:1 72824:1 72844:1 72881:1 79643:1 98759:1 
21.59377117025578 0 36317:1 55592:1 72826:1 72854:1 72864:1 74938:1 82733:1 98752:1 
24.19103018300605 0 36475:1 55152:1 72826:1 72848:1 72864:1 74939:1 82738:1 98752:1 
0 5.712870128703624 100:1 20257:1 36364:1 55049:1 72784:1 72809:1 72826:1 72854:1 74941:1 82685:1 98752:1 
13.09777883684646 1.171851176698471 2794:1 17163:1 36292:1 57769:1 72785:1 72811:1 72826:1 72848:1 72865:1 74944:1 82744:1 98752:1 
0 3.504316965687653 62:1 20042:1 39325:1 55369:1 72786:1 72805:1 72824:1 72858:1 72897:1 79658:1 98756:1 
0 12.28335654814865 190:1 20278:1 36464:1 55369:1 72796:1 72807:1 72836:1 72858:1 72900:1 79633:1 98755:1 
11.91041349929821 0 13:1 18625:1 36849:1 55053:1 72790:1 72812:1 72830:1 72854:1 72864:1 73004:1 82782:1 98752:1 
0 2.996186544615295 19:1 18840:1 36292:1 56045:1 72786:1 72805:1 72826:1 72844:1 73286:1 80464:1 98752:1 
6.422261135131794 0 36292:1 55432:1 72826:1 72848:1 72864:1 74884:1 80068:1 98752:1 
0 0.9113454257444437 1771:1 20320:1 39381:1 54826:1 72786:1 72805:1 72824:1 72844:1 72881:1 79643:1 98759:1 
0 7.141195477217894 2850:1 17163:1 36287:1 56018:1 72785:1 72811:1 72825:1 72845:1 73224:1 82804:1 98752:1 
0 15.12721363794637 14:1 20321:1 37525:1 55760:1 72791:1 72805:1 72824:1 72848:1 72886:1 79648:1 98753:1 
0 4.269668668893638 19:1 18430:1 39382:1 54815:1 72786:1 72805:1 72824:1 72849:1 73672:1 80636:1 98756:1 
51.48122260993923 0 683:1 17184:1 36281:1 54816:1 72787:1 72806:1 72831:1 72844:1 72864:1 73256:1 82860:1 98752:1 
0 17.51854101241268 14:1 20379:1 39040:1 55369:1 72791:1 72805:1 72824:1 72858:1 72886:1 79648:1 98753:1 
0 9.085614885858764 190:1 17569:1 36464:1 55131:1 72796:1 72809:1 72836:1 72850:1 74057:1 82596:1 98752:1 
0 5.647328990232912 63:1 17165:1 36281:1 55206:1 72795:1 72807:1 72831:1 72850:1 73914:1 80922:1 98752:1 
0 1.661253976154639 36553:1 54846:1 72826:1 72844:1 72864:1 73564:1 80381:1 98752:1 
2.618389149704079 9.655659025144491 2934:1 17668:1 36317:1 55249:1 72789:1 72805:1 72826:1 72846:1 72864:1 73012:1 82888:1 98756:1 
14.20359339253251 0 39482:1 54883:1 72826:1 72844:1 72864:1 75002:1 82715:1 98752:1 
0 1.09329642521544 29:1 20431:1 39490:1 54815:1 72786:1 72805:1 72824:1 72849:1 72881:1 79643:1 98759:1 
0 7.384671877544601 34:1 20381:1 37925:1 54820:1 72786:1 72805:1 72824:1 72851:1 72972:1 79733:1 98751:1 
0 12.24362225888326 2911:1 17253:1 36281:1 54817:1 72785:1 72804:1 72831:1 72850:1 72889:1 81323:1 98752:1 
33.5353628710151 0 17747:1 39524:1 54820:1 72821:1 72828:1 72851:1 72864:1 72972:1 79733:1 98752:1 
0 12.42298672710147 544:1 17253:1 36281:1 57969:1 72801:1 72805:1 72831:1 72848:1 73067:1 82950:1 98756:1 
0 4.222037958457314 92:1 19670:1 39526:1 54815:1 72786:1 72805:1 72824:1 72849:1 72878:1 80138:1 98756:1 
13.22133808063788 7.831471011363685 2276:1 17656:1 36275:1 72785:1 72809:1 72829:1 72864:1 73489:1 82953:1 98752:1 
24.08514793511383 5.51548271528025 3004:1 17158:1 36415:1 54826:1 72785:1 72806:1 72825:1 72844:1 72864:1 73528:1 82976:1 98752:1 
0 13.40233522168124 3020:1 17168:1 36275:1 72785:1 72806:1 72829:1 73069:1 79829:1 98752:1 
5.961049407760562 0 17350:1 38010:1 54820:1 72816:1 72837:1 72851:1 72864:1 75028:1 82981:1 98765:1 
20.96009250356116 0 39440:1 56114:1 72824:1 72849:1 72864:1 73685:1 80574:1 98752:1 
0 1.503458854912793 373:1 20214:1 36437:1 54843:1 72786:1 72805:1 72830:1 72844:1 73256:1 80046:1 98752:1 
17.78830311585922 10.89307644923544 1259:1 17168:1 36281:1 56182:1 72785:1 72806:1 72831:1 72848:1 72864:1 74237:1 81514:1 98752:1 
0 9.545083430026176 19:1 17566:1 39611:1 55369:1 72786:1 72805:1 72824:1 72858:1 74598:1 82037:1 98756:1 
0 1.268668876340358 384:1 19554:1 36854:1 54874:1 72785:1 72809:1 72839:1 72846:1 74298:1 83039:1 98752:1 
56.34305628609906 5.612627619223352 67:1 17192:1 36856:1 54820:1 72787:1 72806:1 72840:1 72851:1 72864:1 73021:1 83040:1 98752:1 
29.52882250766533 0 3094:1 17192:1 36510:1 72785:1 72806:1 72829:1 72864:1 74237:1 81514:1 98752:1 
0 3.729646411688881 13:1 20170:1 36281:1 54846:1 72790:1 72805:1 72831:1 72853:1 75065:1 83063:1 98752:1 
0 4.360869160372252 373:1 18365:1 36275:1 72786:1 72805:1 72829:1 72935:1 79697:1 98751:1 
0 10.79079961960899 13:1 18430:1 36275:1 72790:1 72805:1 72829:1 75076:1 83101:1 98751:1 
4.814074611606382 14.68894001409788 3143:1 20626:1 36281:1 56018:1 72785:1 72804:1 72831:1 72845:1 72865:1 75080:1 83110:1 98751:1 
0 10.79437708183301 13:1 18430:1 36275:1 72790:1 72805:1 72829:1 75081:1 83111:1 98751:1 
0 4.576647926895657 62:1 20631:1 36282:1 58118:1 72786:1 72805:1 72832:1 72845:1 73294:1 83115:1 98752:1 
0 5.192991995842948 1348:1 17431:1 36332:1 54817:1 72797:1 72805:1 72825:1 72850:1 75085:1 79912:1 98752:1 
0 5.292017099116469 29:1 20213:1 36304:1 58122:1 72789:1 72805:1 72825:1 72845:1 72864:1 74201:1 82353:1 98756:1 
17.1577583117823 0 17747:1 36296:1 54831:1 72821:1 72828:1 72846:1 72864:1 73726:1 83152:1 98752:1 
0 0.5509550173485831 29:1 20675:1 36282:1 55555:1 72789:1 72805:1 72832:1 72845:1 73294:1 82959:1 98752:1 
0 1.755850192031632 3186:1 20476:1 37042:1 54820:1 72785:1 72805:1 72824:1 72851:1 72881:1 79643:1 98759:1 
1.771380749250586 0 2196:1 17162:1 37199:1 54843:1 72785:1 72810:1 72824:1 72844:1 75101:1 82653:1 98752:1 
14.2570918288833 0 544:1 17162:1 39744:1 55369:1 72801:1 72810:1 72828:1 72858:1 72864:1 73125:1 79751:1 98752:1 
6.547197177056528 0 36636:1 58175:1 72825:1 72845:1 72864:1 74980:1 83178:1 98752:1 
24.24627871525606 0 39756:1 54821:1 72824:1 72852:1 72864:1 75107:1 83187:1 98752:1 
0 6.53411623084991 20704:1 36282:1 58183:1 72805:1 72832:1 72845:1 73182:1 83188:1 98752:1 
0 1.967796713693876 3214:1 20705:1 39757:1 58184:1 72785:1 72805:1 72824:1 72845:1 72881:1 79643:1 98759:1 
0 6.10380454257047 14:1 20706:1 36275:1 72791:1 72805:1 72829:1 75109:1 83190:1 98752:1 
9.36869740066634 0 36298:1 56199:1 72828:1 72845:1 72864:1 74969:1 82807:1 98752:1 
9.573052177178852 0 36277:1 57797:1 72825:1 72845:1 72864:1 75113:1 83200:1 98752:1 
4.571726513556075 0 36287:1 58194:1 72825:1 72848:1 72864:1 75114:1 83201:1 98752:1 
2.575368118405318 1.856043756766002 29:1 17159:1 36287:1 55115:1 72789:1 72804:1 72825:1 72845:1 72864:1 75117:1 83209:1 98752:1 
0 0.3888051893428621 92:1 17332:1 36287:1 58215:1 72786:1 72809:1 72825:1 72845:1 72915:1 81182:1 98752:1 
0 0.01826284141976404 13:1 20742:1 39793:1 57282:1 72790:1 72805:1 72828:1 72845:1 75125:1 83226:1 98752:1 
0 2.586385724949846 3265:1 19579:1 36383:1 54911:1 72798:1 72805:1 72824:1 72846:1 72886:1 79648:1 98753:1 
4.847954822461719 0 830:1 17159:1 36298:1 58178:1 72785:1 72804:1 72828:1 72848:1 72864:1 74465:1 80111:1 98752:1 
0 6.411393678934235 363:1 20771:1 39820:1 58243:1 72787:1 72805:1 72824:1 72845:1 72880:1 79642:1 98758:1 
0 1.850702187469354 29:1 18194:1 36309:1 57047:1 72786:1 72805:1 72826:1 72846:1 72959:1 79722:1 98755:1 
0 3.416922477458132 104:1 18647:1 36854:1 58067:1 72785:1 72809:1 72839:1 72845:1 73464:1 83266:1 98752:1 
32.17678497977963 1.932417231232462 36854:1 54816:1 72839:1 72844:1 72864:1 74074:1 83229:1 98752:1 
0 1.019547456400777 9:1 20785:1 39834:1 54826:1 72786:1 72805:1 72824:1 72844:1 72881:1 79643:1 98759:1 
0 10.12031773060927 14:1 20786:1 39835:1 55371:1 72791:1 72805:1 72824:1 72859:1 72886:1 79648:1 98753:1 
0 7.221277951039004 1056:1 19070:1 36281:1 54817:1 72785:1 72809:1 72831:1 72850:1 75143:1 83278:1 98752:1 
0 0.4940302500346724 3304:1 18347:1 36346:1 54830:1 72789:1 72805:1 72825:1 72850:1 75145:1 83287:1 98752:1 
5.98068642587183 0 6:1 17207:1 36275:1 72788:1 72809:1 72829:1 72864:1 75150:1 83305:1 98756:1 
0 4.601464938985027 724:1 20844:1 36281:1 54821:1 72785:1 72805:1 72831:1 72852:1 75159:1 83328:1 98752:1 
0 3.947631629056874 190:1 20848:1 36282:1 55000:1 72796:1 72805:1 72832:1 72856:1 73070:1 79830:1 98763:1 
0 6.844605101370092 190:1 17556:1 36464:1 54851:1 72796:1 72809:1 72836:1 72852:1 74277:1 81425:1 98752:1 
13.02400759531226 0 17350:1 36319:1 54820:1 72816:1 72825:1 72851:1 72864:1 72939:1 79693:1 98752:1 
0 1.258622186193355 14:1 20869:1 39918:1 58339:1 72791:1 72805:1 72824:1 72845:1 72881:1 79643:1 98759:1 
23.89040329270019 29.13351386139596 3361:1 20871:1 37621:1 72785:1 72805:1 72829:1 72864:1 75168:1 83355:1 98752:1 
8.572854772996244 0 14:1 17344:1 36282:1 54994:1 72791:1 72808:1 72832:1 72847:1 72864:1 75180:1 83373:1 98754:1 
15.21496617815492 5.717349446846094 3380:1 17163:1 37090:1 54815:1 72785:1 72811:1 72824:1 72849:1 72864:1 73119:1 81385:1 98756:1 
13.23856803750831 0 36282:1 58356:1 72832:1 72845:1 72864:1 75160:1 83329:1 98752:1 
0 9.733506090781171 249:1 20846:1 36464:1 54821:1 72787:1 72805:1 72836:1 72852:1 73304:1 83386:1 98753:1 
23.03070822684872 0 36584:1 54837:1 72826:1 72844:1 72864:1 73216:1 80003:1 98752:1 
15.95659716172132 0 37666:1 54970:1 72826:1 72847:1 72864:1 73373:1 80190:1 98752:1 
0 10.54403810620629 100:1 20958:1 36464:1 54958:1 72784:1 72805:1 72836:1 72846:1 72880:1 79642:1 98757:1 
3.518660932573963 0 17350:1 36281:1 54899:1 72816:1 72831:1 72853:1 72864:1 73967:1 80082:1 98754:1 
79.12478943337069 4.797532327102746 36779:1 54908:1 72826:1 72850:1 72864:1 73337:1 83448:1 98752:1 
0 0.9467492713425106 2162:1 17168:1 36281:1 58435:1 72786:1 72806:1 72831:1 72845:1 73069:1 79829:1 98752:1 
0.8378744678942057 0 40025:1 54816:1 72824:1 72844:1 72864:1 74356:1 79985:1 98756:1 
4.43048113063384 0 257:1 17192:1 36282:1 55203:1 72786:1 72806:1 72832:1 72845:1 74334:1 81516:1 98752:1 
0 19.92549441664655 41:1 19033:1 36677:1 54821:1 72786:1 72805:1 72824:1 72852:1 72881:1 79643:1 98759:1 
0 0.01381515326325024 14:1 20989:1 40036:1 54821:1 72791:1 72805:1 72824:1 72852:1 72886:1 79648:1 98753:1 
0 1.181785020588184 19:1 20990:1 36405:1 55844:1 72786:1 72805:1 72828:1 72846:1 72881:1 79643:1 98759:1 
6.25476682500023 0 17350:1 36281:1 55000:1 72816:1 72831:1 72856:1 72864:1 74750:1 82361:1 98761:1 
0 12.4518505987945 3469:1 17564:1 36281:1 54821:1 72785:1 72805:1 72831:1 72852:1 72864:1 73131:1 82278:1 98751:1 
22.40615589905308 0 37052:1 54994:1 72826:1 72847:1 72864:1 72889:1 82020:1 98752:1 
0 8.642078229143291 190:1 21038:1 36464:1 54815:1 72796:1 72809:1 72836:1 72849:1 75244:1 83522:1 98752:1 
0 0.6362816414957643 13:1 20988:1 38230:1 55195:1 72790:1 72805:1 72841:1 72847:1 74402:1 81620:1 98752:1 
10.16425052881715 0 36292:1 55221:1 72826:1 72847:1 72864:1 73763:1 83534:1 98752:1 
9.169215014306141 0 17350:1 39867:1 54815:1 72816:1 72824:1 72849:1 72864:1 73238:1 82243:1 98752:1 
35.0140039971191 0 36309:1 54897:1 72826:1 72847:1 72864:1 73023:1 81047:1 98752:1 
9.297884290968243 0 1137:1 17168:1 36477:1 54820:1 72785:1 72806:1 72830:1 72851:1 74194:1 83586:1 98752:1 
37.20841471484015 0 38830:1 54821:1 72824:1 72852:1 72864:1 73012:1 83591:1 98756:1 
28.82089551345793 11.83283628625284 288:1 19083:1 36287:1 55000:1 72787:1 72809:1 72825:1 72856:1 72864:1 75266:1 83593:1 98752:1 
66.98104039485324 19.41021390021951 262:1 17168:1 36281:1 54857:1 72786:1 72806:1 72831:1 72853:1 72864:1 75273:1 83613:1 98752:1 
2.201264248845392 0 13:1 18038:1 40203:1 54843:1 72790:1 72812:1 72826:1 72844:1 72869:1 83640:1 98752:1 
22.45996995765479 13.17597962900459 100:1 21162:1 38230:1 55000:1 72784:1 72809:1 72841:1 72856:1 72864:1 75280:1 83646:1 98752:1 
17.31041125155789 4.723317333834288 100:1 21164:1 36281:1 55718:1 72784:1 72809:1 72829:1 72846:1 72864:1 74030:1 83648:1 98752:1 
5.114982446177109 0 568:1 21185:1 36281:1 54817:1 72785:1 72809:1 72831:1 72850:1 72984:1 79928:1 98752:1 
25.3011987066135 12.78132119463632 3646:1 17214:1 36282:1 58638:1 72785:1 72806:1 72832:1 72845:1 72864:1 75285:1 83670:1 98752:1 
0 3.636056982482581 62:1 21187:1 40233:1 54820:1 72786:1 72805:1 72824:1 72851:1 72881:1 79643:1 98759:1 
0 6.407714870024152 62:1 17896:1 36993:1 54815:1 72786:1 72805:1 72824:1 72849:1 73405:1 83668:1 98756:1 
0 3.269999995931923 675:1 21185:1 36275:1 72785:1 72809:1 72829:1 73543:1 80366:1 98752:1 
11.16847220763048 0 36292:1 54903:1 72826:1 72848:1 72864:1 73337:1 83448:1 98752:1 
4.709261449695632 0 13:1 17211:1 36320:1 58648:1 72790:1 72813:1 72825:1 72845:1 72864:1 73306:1 83680:1 98756:1 
16.38875675821241 0 3675:1 17163:1 36320:1 58670:1 72785:1 72811:1 72833:1 72846:1 72864:1 75293:1 83705:1 98752:1 
0 5.234019038439546 3680:1 18743:1 40270:1 54821:1 72785:1 72809:1 72834:1 72852:1 74402:1 83709:1 98752:1 
13.23299465877154 0 36282:1 58677:1 72832:1 72845:1 72864:1 75297:1 83713:1 98752:1 
0 20.44072948690662 3706:1 17163:1 36281:1 54857:1 72785:1 72811:1 72831:1 72844:1 75239:1 83512:1 98752:1 
21.33724121623741 0 36281:1 54857:1 72831:1 72853:1 72864:1 73742:1 83724:1 98752:1 
0 1.094318059615498 29:1 21290:1 37237:1 54815:1 72786:1 72805:1 72824:1 72849:1 72881:1 79643:1 98759:1 
0 9.950651505364206 424:1 17253:1 36777:1 54815:1 72786:1 72804:1 72824:1 72849:1 72864:1 73349:1 80338:1 98756:1 
1.392915088052477 0 914:1 17162:1 36386:1 58690:1 72785:1 72814:1 72825:1 72845:1 72864:1 73189:1 83781:1 98754:1 
12.64645023822209 12.5275473204672 50:1 17159:1 36700:1 54817:1 72786:1 72804:1 72825:1 72850:1 72864:1 72995:1 83801:1 98752:1 
0 5.681710355480452 190:1 21324:1 36464:1 54815:1 72796:1 72809:1 72836:1 72849:1 75342:1 83808:1 98756:1 
0 0.06829442318764371 147:1 20807:1 36347:1 54810:1 72787:1 72805:1 72826:1 72844:1 72881:1 79643:1 98759:1 
0 3.971055987148429 77:1 17156:1 40395:1 54815:1 72788:1 72804:1 72824:1 72849:1 73247:1 79812:1 98756:1 
3.129135039127944 0 40399:1 58803:1 72824:1 72846:1 72864:1 72919:1 79679:1 98754:1 
22.12960169775081 0 1974:1 17178:1 40408:1 57104:1 72785:1 72809:1 72824:1 72848:1 72864:1 75358:1 83846:1 98752:1 
0 2.829371090812107 3805:1 21358:1 39606:1 54815:1 72785:1 72805:1 72824:1 72849:1 74579:1 82037:1 98756:1 
0 10.3278773653125 3801:1 19554:1 36275:1 72785:1 72809:1 72829:1 72864:1 75051:1 83033:1 98752:1 
0 1.17848231003114 100:1 21010:1 36553:1 54815:1 72784:1 72809:1 72826:1 72849:1 75171:1 83851:1 98752:1 
0 0.5530899705458524 7:1 18642:1 36311:1 55104:1 72784:1 72809:1 72825:1 72845:1 75218:1 83852:1 98752:1 
2.479887577132382 0 38917:1 55423:1 72826:1 72844:1 72864:1 74056:1 81979:1 98752:1 
128 0 36282:1 55177:1 72832:1 72845:1 72864:1 72904:1 79629:1 98752:1 
0.6531156773003217 0 276:1 17353:1 36320:1 55690:1 72787:1 72806:1 72833:1 72846:1 73169:1 82344:1 98752:1 
11.0227232453888 0 36945:1 55063:1 72826:1 72847:1 72864:1 75373:1 83864:1 98752:1 
1.937952392073583 0 40426:1 54820:1 72826:1 72851:1 72864:1 74056:1 81979:1 98752:1 
0 19.957328205528 13:1 17163:1 40427:1 54821:1 72790:1 72811:1 72826:1 72852:1 73912:1 80920:1 98752:1 
0 9.674229899684807 996:1 21387:1 37443:1 54821:1 72787:1 72805:1 72826:1 72852:1 72864:1 72933:1 79695:1 98762:1 
16.73608760457817 0 36309:1 55592:1 72826:1 72854:1 72864:1 72918:1 80101:1 98752:1 
0 1.554095756272752 18671:1 40432:1 54821:1 72817:1 72824:1 72852:1 72865:1 72886:1 79648:1 98753:1 
0 0.8415379452667487 251:1 19654:1 36961:1 58862:1 72787:1 72805:1 72830:1 72845:1 72881:1 79643:1 98759:1 
0 1.908797335241863 2259:1 17163:1 40460:1 55524:1 72785:1 72811:1 72824:1 72846:1 73513:1 80334:1 98751:1 
0 8.42451009841573 29:1 18189:1 38509:1 54815:1 72786:1 72805:1 72824:1 72849:1 72905:1 79664:1 98753:1 
24.51878069357331 0 36281:1 54857:1 72831:1 72853:1 72864:1 75394:1 83915:1 98752:1 
27.68795208335256 10.13771016674277 36284:1 55247:1 72826:1 72844:1 72864:1 73014:1 79776:1 98752:1 
0.4331056263148635 0 40111:1 54826:1 72826:1 72844:1 72864:1 74056:1 81979:1 98752:1 
0 5.012906784943533 34:1 21446:1 36282:1 58889:1 72786:1 72805:1 72832:1 72848:1 75403:1 83930:1 98752:1 
9.059763656682627 5.583709370387833 14:1 17653:1 36706:1 54820:1 72791:1 72809:1 72825:1 72851:1 72864:1 74265:1 83933:1 98752:1 
0 2.619987396066019 1140:1 17168:1 36282:1 58748:1 72785:1 72806:1 72832:1 72846:1 74496:1 82172:1 98752:1 
15.66583695028911 0 40512:1 54826:1 72826:1 72844:1 72864:1 73860:1 83953:1 98752:1 
30.91570158856894 0 36387:1 54813:1 72826:1 72847:1 72864:1 75419:1 80523:1 98752:1 
2.456020147427948 0 3761:1 17228:1 36282:1 58913:1 72785:1 72806:1 72832:1 72846:1 72864:1 74800:1 79869:1 98752:1 
0 28.88542319155677 38347:1 54944:1 72826:1 72844:1 72864:1 73265:1 80048:1 98752:1 
12.6236409834436 0 40528:1 55152:1 72826:1 72848:1 72864:1 73431:1 83968:1 98752:1 
14.7881806225528 7.444204235167356 29:1 21496:1 36282:1 58934:1 72789:1 72809:1 72832:1 72845:1 72864:1 74590:1 83980:1 98752:1 
0.3647527266310748 0 40574:1 57551:1 72826:1 72845:1 72864:1 73798:1 83848:1 98752:1 
4.658688015777786 0 1770:1 17158:1 40581:1 54826:1 72787:1 72806:1 72824:1 72844:1 72864:1 74386:1 81623:1 98756:1 
26.62504612573695 0 13:1 17556:1 36275:1 72790:1 72809:1 72829:1 72864:1 75051:1 83033:1 98752:1 
5.582691784400728 0 18671:1 38426:1 54820:1 72817:1 72824:1 72851:1 72864:1 73422:1 84032:1 98751:1 
0 1.520580687400489 1106:1 21358:1 40403:1 54821:1 72787:1 72805:1 72824:1 72852:1 72881:1 79643:1 98759:1 
4.875410463637334 0 40408:1 54977:1 72824:1 72846:1 72864:1 75358:1 83846:1 98752:1 
19.11868121212122 0 3766:1 17184:1 36275:1 72787:1 72806:1 72829:1 72864:1 73125:1 81963:1 98752:1 
0 4.613715990290388 77:1 21567:1 40612:1 54821:1 72788:1 72805:1 72824:1 72852:1 72881:1 79643:1 98759:1 
128 0 36282:1 59005:1 72832:1 72845:1 72864:1 75461:1 84050:1 98752:1 
20.79844450366976 29.46102606687059 14:1 21568:1 36275:1 72791:1 72805:1 72829:1 72864:1 73658:1 84054:1 98752:1 
13.61578918108017 0 39768:1 54843:1 72826:1 72844:1 72864:1 73156:1 84014:1 98752:1 
54.22681158068549 0 36364:1 55063:1 72826:1 72847:1 72864:1 74164:1 84080:1 98752:1 
0 3.495639680291659 9:1 21604:1 36283:1 54820:1 72786:1 72805:1 72834:1 72851:1 73508:1 80307:1 98751:1 
11.09847546015648 0 63:1 17162:1 36493:1 54866:1 72798:1 72810:1 72826:1 72854:1 74425:1 83380:1 98752:1 
15.22867246887734 0 37557:1 54826:1 72826:1 72844:1 72864:1 73431:1 84087:1 98752:1 
31.15056485593198 0 36485:1 55063:1 72826:1 72847:1 72864:1 75473:1 81037:1 98752:1 
9.955168948510131 0 18671:1 37155:1 54866:1 72817:1 72826:1 72854:1 72864:1 73099:1 84066:1 98752:1 
0 0.6773279834947981 14:1 21658:1 40088:1 54821:1 72791:1 72805:1 72824:1 72852:1 74085:1 81141:1 98759:1 
0 2.620906240263618 4053:1 21661:1 40597:1 55367:1 72785:1 72805:1 72824:1 72850:1 72881:1 79643:1 98759:1 
0 22.19521083542865 19:1 21660:1 36281:1 54958:1 72786:1 72805:1 72829:1 72846:1 75428:1 83968:1 98752:1 
0 0.185374500527671 21605:1 36753:1 54849:1 72805:1 72824:1 72844:1 72864:1 73352:1 80152:1 98754:1 
11.16017612147585 3.320524104115125 4065:1 17168:1 36282:1 55962:1 72785:1 72806:1 72832:1 72846:1 72864:1 73220:1 81005:1 98752:1 
48.0337642919038 3.135061327614512 248:1 17184:1 36358:1 54817:1 72788:1 72806:1 72826:1 72850:1 72864:1 73152:1 84156:1 98752:1 
0 2.417068058873211 4071:1 17559:1 38689:1 56441:1 72799:1 72805:1 72824:1 72845:1 72881:1 79643:1 98759:1 
2.840817387173744 0 284:1 17156:1 36529:1 54817:1 72792:1 72808:1 72827:1 72850:1 72864:1 73352:1 80152:1 98754:1 
29.71559991679311 5.638486851925657 3281:1 17168:1 36277:1 54817:1 72789:1 72806:1 72825:1 72850:1 72864:1 74496:1 84182:1 98752:1 
7.923835701312861 0 262:1 17192:1 36275:1 72786:1 72806:1 72829:1 75388:1 81910:1 98752:1 
10.60480148672764 0 4096:1 17178:1 36282:1 59141:1 72785:1 72809:1 72832:1 72848:1 72864:1 74055:1 83033:1 98752:1 
0 5.159121334117411 37:1 19267:1 36559:1 54823:1 72792:1 72805:1 72824:1 72846:1 72881:1 79643:1 98759:1 
24.46587918331794 0.09791519011047371 18671:1 36281:1 54958:1 72817:1 72831:1 72846:1 72864:1 75523:1 84195:1 98752:1 
18.75744334139305 0 120:1 17270:1 36501:1 54889:1 72789:1 72806:1 72825:1 72853:1 72864:1 73063:1 84197:1 98752:1 
31.85575286420767 0 36292:1 54822:1 72826:1 72854:1 72864:1 73639:1 81750:1 98752:1 
2.14633300835041 0 37287:1 54958:1 72824:1 72846:1 72864:1 72967:1 79728:1 98756:1 
18.60194857878533 0 40703:1 54831:1 72824:1 72846:1 72864:1 75496:1 84143:1 98752:1 
0.1209887511715206 0 36292:1 58009:1 72826:1 72848:1 72864:1 75496:1 84143:1 98752:1 
14.50774254667585 0 19:1 17440:1 36275:1 72786:1 72809:1 72829:1 72864:1 73744:1 84213:1 98752:1 
0 4.196322895843899 95:1 17230:1 36295:1 55247:1 72787:1 72808:1 72834:1 72844:1 75529:1 84216:1 98766:1 
0 1.36617787845174 77:1 21734:1 40774:1 55394:1 72788:1 72805:1 72824:1 72853:1 72881:1 79643:1 98759:1 
0 1.094818594909695 29:1 18157:1 40775:1 54815:1 72786:1 72805:1 72824:1 72849:1 72881:1 79643:1 98759:1 
4.302908025576922 0 40703:1 55131:1 72824:1 72850:1 72864:1 75496:1 84143:1 98752:1 
14.30454800921891 0 18671:1 36292:1 55686:1 72817:1 72826:1 72845:1 72864:1 73094:1 84230:1 98752:1 
22.16373371629819 6.101882291066166 3976:1 17168:1 36275:1 72785:1 72806:1 72829:1 72864:1 74542:1 81005:1 98752:1 
29.90249677597286 0 49:1 17178:1 36595:1 72786:1 72809:1 72829:1 72864:1 72903:1 83933:1 98752:1 
1.019566743834043 0 36426:1 59187:1 72828:1 72845:1 72864:1 72972:1 79733:1 98751:1 
5.793525140750713 0 40684:1 54911:1 72824:1 72846:1 72864:1 72967:1 79728:1 98756:1 
128 11.45462037737866 13:1 17305:1 40432:1 54820:1 72794:1 72807:1 72824:1 72851:1 72864:1 75532:1 84224:1 98752:1 
40.43724455602397 67.76694589777475 147:1 21741:1 36281:1 56705:1 72787:1 72805:1 72831:1 72860:1 72864:1 75234:1 83872:1 98752:1 
0 0.05699118648440596 77:1 17156:1 37738:1 55575:1 72788:1 72804:1 72828:1 72845:1 73920:1 80929:1 98751:1 
0 1.094551627157256 77:1 17253:1 40821:1 59207:1 72788:1 72804:1 72828:1 72845:1 73920:1 80929:1 98751:1 
0 2.608525991715094 424:1 21492:1 36548:1 54815:1 72786:1 72805:1 72824:1 72849:1 72886:1 79648:1 98753:1 
8.03936303327059 0 270:1 17228:1 37036:1 54826:1 72785:1 72806:1 72825:1 72844:1 75551:1 82344:1 98752:1 
25.67534944494661 0 37621:1 72829:1 72864:1 75557:1 84282:1 98752:1 
16.78053813821847 0 36337:1 54856:1 72826:1 72844:1 72864:1 75558:1 84287:1 98752:1 
0 3.84337216554776 38856:1 54815:1 72826:1 72849:1 72864:1 73125:1 80802:1 98752:1 
0 26.32355564762034 18320:1 36275:1 72805:1 72829:1 75139:1 82270:1 98754:1 
0 15.42621735116195 21473:1 36277:1 56105:1 72805:1 72825:1 72845:1 75139:1 82270:1 98754:1 
7.094590489563696 0 14:1 17246:1 36277:1 54908:1 72791:1 72807:1 72825:1 72850:1 72864:1 73980:1 79751:1 98752:1 
0 8.163581522603065 3806:1 17168:1 36275:1 72785:1 72806:1 72829:1 75563:1 84303:1 98752:1 
8.728806940861114 0 18671:1 36329:1 55016:1 72817:1 72834:1 72844:1 72864:1 73080:1 84308:1 98752:1 
0 6.807138095794564 34:1 21830:1 36275:1 72786:1 72805:1 72829:1 75406:1 83847:1 98752:1 
22.05990586563539 0 17350:1 39232:1 55000:1 72816:1 72824:1 72856:1 72864:1 73044:1 84318:1 98754:1 
0 8.601623726038266 190:1 21835:1 36464:1 54815:1 72796:1 72807:1 72836:1 72849:1 74908:1 82653:1 98752:1 
1.159012309451686 0 36284:1 54923:1 72826:1 72844:1 72864:1 73273:1 80150:1 98752:1 
0 3.876447871670419 41:1 21831:1 36275:1 72786:1 72805:1 72829:1 75574:1 84321:1 98752:1 
19.58099593045497 0 36292:1 54826:1 72826:1 72844:1 72864:1 73975:1 84334:1 98752:1 
0 1.666428110579419 62:1 21853:1 40891:1 54817:1 72786:1 72805:1 72824:1 72850:1 72881:1 79643:1 98759:1 
0 0.4295025041506064 19:1 21865:1 40903:1 54821:1 72786:1 72805:1 72824:1 72852:1 72886:1 79648:1 98753:1 
7.576648231617608 0 36292:1 55497:1 72826:1 72848:1 72864:1 73523:1 84351:1 98752:1 
0 5.084433503592196 328:1 17253:1 36652:1 54815:1 72786:1 72804:1 72824:1 72849:1 74016:1 81125:1 98756:1 
0 11.63001823254578 100:1 18642:1 36275:1 72784:1 72809:1 72829:1 73238:1 80023:1 98752:1 
0 0.6944177464581414 36849:1 56053:1 72830:1 72846:1 72864:1 72983:1 80663:1 98752:1 
0 22.78327228658606 190:1 17253:1 40928:1 55000:1 72796:1 72804:1 72824:1 72856:1 74136:1 81212:1 98756:1 
0 6.66457372878133 100:1 18729:1 36464:1 54816:1 72784:1 72809:1 72836:1 72844:1 74481:1 84375:1 98752:1 
4.037875332153825 0 36273:1 59329:1 72827:1 72846:1 72864:1 75082:1 84388:1 98752:1 
0 7.802546166701873 373:1 21547:1 40953:1 55423:1 72786:1 72805:1 72826:1 72844:1 73556:1 80241:1 98752:1 
0 13.32539095772884 92:1 21936:1 36281:1 54857:1 72786:1 72805:1 72831:1 72853:1 74306:1 80731:1 98752:1 
15.0543765383829 0 36287:1 59362:1 72825:1 72845:1 72864:1 75619:1 80794:1 98752:1 
3.297579646212833 0 36272:1 58750:1 72826:1 72846:1 72864:1 74910:1 84431:1 98752:1 
18.58313353349406 0 1:1 17172:1 36281:1 59371:1 72788:1 72807:1 72831:1 72845:1 72864:1 72944:1 84432:1 98752:1 
0 1.541253329179791 405:1 19404:1 36304:1 55056:1 72789:1 72805:1 72825:1 72845:1 72864:1 74201:1 82353:1 98756:1 
4.456900806889067 0 36292:1 54846:1 72826:1 72844:1 72864:1 73256:1 81668:1 98752:1 
0 2.286792019565647 4336:1 17168:1 36281:1 54817:1 72785:1 72806:1 72831:1 72850:1 73445:1 80261:1 98752:1 
0 8.58459074750391 373:1 21980:1 38689:1 54821:1 72786:1 72805:1 72824:1 72852:1 72886:1 79648:1 98753:1 
0 37.01853502147527 19:1 19609:1 38856:1 55000:1 72786:1 72805:1 72826:1 72856:1 72881:1 79643:1 98759:1 
0 5.764888426562216 2220:1 17163:1 36464:1 54884:1 72785:1 72811:1 72836:1 72846:1 73023:1 82270:1 98754:1 
0 3.760400466241197 3985:1 17168:1 36755:1 55000:1 72785:1 72806:1 72826:1 72856:1 72902:1 80416:1 98752:1 
0 0.3314030464056403 19:1 17934:1 36464:1 54820:1 72786:1 72805:1 72836:1 72849:1 73169:1 80127:1 98754:1 
0 1.310428490515308 19:1 21978:1 37104:1 54815:1 72786:1 72805:1 72824:1 72849:1 73296:1 82951:1 98756:1 
13.63245791244971 0 36337:1 59406:1 72826:1 72854:1 72864:1 74242:1 82606:1 98752:1 
27.83737474267658 0 13:1 17163:1 36329:1 54831:1 72790:1 72811:1 72834:1 72846:1 72864:1 73564:1 82529:1 98752:1 
0 5.287589922466757 19:1 17559:1 41019:1 54826:1 72786:1 72805:1 72824:1 72844:1 72881:1 79643:1 98759:1 
3.838976871847608 0 36292:1 56946:1 72826:1 72854:1 72864:1 73233:1 81031:1 98752:1 
21.64549427815888 0 36292:1 55053:1 72826:1 72854:1 72864:1 73287:1 80358:1 98752:1 
0 2.987053787295114 41:1 17859:1 36332:1 54870:1 72786:1 72805:1 72825:1 72855:1 72878:1 83890:1 98752:1 
0 5.513401955786868 19:1 22006:1 36291:1 59428:1 72786:1 72805:1 72830:1 72848:1 73304:1 80094:1 98753:1 
0 3.044871737449436 19:1 22008:1 38960:1 55217:1 72786:1 72805:1 72824:1 72846:1 72908:1 79667:1 98753:1 
0 1.884325880214767 4348:1 22014:1 36282:1 55844:1 72785:1 72809:1 72832:1 72846:1 73135:1 84498:1 98752:1 
0 21.19299941949173 41:1 22016:1 36287:1 59438:1 72786:1 72805:1 72825:1 72845:1 73549:1 80381:1 98752:1 
0 10.04166462683408 1088:1 21923:1 36281:1 55247:1 72786:1 72805:1 72831:1 72844:1 74463:1 84505:1 98752:1 
16.72605803297715 0 36281:1 59446:1 72831:1 72845:1 72864:1 75648:1 84508:1 98752:1 
34.12546855161185 10.38112498931229 4401:1 17194:1 36275:1 72785:1 72811:1 72829:1 72864:1 73517:1 84516:1 98752:1 
3.606820081198026 0 36276:1 56073:1 72826:1 72848:1 72864:1 73571:1 84513:1 98752:1 
6.571107316492089 0 36871:1 54810:1 72826:1 72844:1 72864:1 73571:1 84513:1 98752:1 
27.71236241605651 23.66069894514354 14:1 19519:1 36281:1 54821:1 72791:1 72809:1 72831:1 72852:1 72864:1 74119:1 84531:1 98752:1 
0 6.354978394827186 470:1 18099:1 36282:1 54812:1 72787:1 72805:1 72832:1 72846:1 73526:1 84109:1 98752:1 
0.8034918286635773 0 6:1 17269:1 41088:1 54821:1 72788:1 72807:1 72824:1 72852:1 74072:1 80319:1 98752:1 
0 4.782963923114448 9:1 17407:1 36282:1 59210:1 72786:1 72805:1 72832:1 72846:1 73227:1 84542:1 98752:1 
0 10.35554229264694 29:1 22057:1 36275:1 72786:1 72805:1 72829:1 73862:1 84545:1 98752:1 
0 2.873165387165693 13:1 21303:1 36282:1 54958:1 72790:1 72809:1 72832:1 72846:1 72864:1 73273:1 81005:1 98752:1 
0 1.045856681387885 41:1 21331:1 36464:1 54815:1 72786:1 72805:1 72836:1 72849:1 72962:1 79697:1 98751:1 
0 3.668517323294811 14:1 21614:1 36329:1 55844:1 72791:1 72809:1 72834:1 72846:1 72881:1 79643:1 98759:1 
0 1.80544899194427 4448:1 22076:1 36282:1 57151:1 72787:1 72805:1 72832:1 72846:1 72910:1 83085:1 98752:1 
0 5.766899085222228 34:1 17253:1 36605:1 54815:1 72786:1 72804:1 72824:1 72849:1 74016:1 81125:1 98756:1 
7.201650612046016 0 39055:1 54952:1 72826:1 72844:1 72864:1 73571:1 80801:1 98752:1 
3.476878206546739 0 4475:1 17168:1 36734:1 54843:1 72785:1 72806:1 72825:1 72844:1 72864:1 72910:1 82369:1 98752:1 
35.49496665048225 0 36523:1 58843:1 72826:1 72848:1 72864:1 72974:1 84619:1 98752:1 
16.78695300260201 0 36275:1 72829:1 72865:1 75630:1 84456:1 98752:1 
0 1.131787527312484 77:1 17253:1 36333:1 55793:1 72788:1 72804:1 72835:1 72846:1 75689:1 84625:1 98752:1 
0.7848939645565365 0 36847:1 56316:1 72826:1 72845:1 72864:1 73747:1 80671:1 98752:1 
0 7.454376555723591 14:1 22157:1 36275:1 72791:1 72805:1 72829:1 74650:1 84657:1 98752:1 
1.975687122714591 0 18671:1 36281:1 59593:1 72817:1 72831:1 72848:1 72864:1 73747:1 84658:1 98752:1 
0 2.297011548726827 41:1 19537:1 41212:1 59601:1 72786:1 72805:1 72824:1 72845:1 73042:1 79802:1 98751:1 
0 3.439379391527182 163:1 22181:1 41216:1 59603:1 72784:1 72805:1 72826:1 72845:1 75705:1 84667:1 98752:1 
0 10.43767367257527 92:1 22240:1 37874:1 55191:1 72786:1 72805:1 72834:1 72844:1 74965:1 84694:1 98752:1 
10.84333473074832 0 36309:1 55343:1 72826:1 72846:1 72864:1 72903:1 84728:1 98752:1 
7.768047628400859 0 142:1 17168:1 36304:1 54813:1 72786:1 72806:1 72825:1 72847:1 72864:1 74542:1 81005:1 98752:1 
3.036551157083769 0 36462:1 55063:1 72826:1 72847:1 72864:1 73747:1 80671:1 98752:1 
4.651306316826544 0 36292:1 56354:1 72826:1 72854:1 72864:1 72910:1 84744:1 98752:1 
0 0.128576006289351 19:1 22270:1 41300:1 54883:1 72786:1 72805:1 72824:1 72844:1 72881:1 79643:1 98759:1 
1.957086761137495 0 36320:1 59575:1 72833:1 72846:1 72864:1 72903:1 84756:1 98752:1 
31.53426245055463 0 298:1 17178:1 36281:1 54924:1 72785:1 72809:1 72829:1 72846:1 72864:1 74465:1 84759:1 98752:1 
0 5.187059222670227 432:1 22286:1 36275:1 72786:1 72805:1 72829:1 75686:1 84613:1 98752:1 
0 4.762519587373692 17159:1 39943:1 59705:1 72804:1 72824:1 72846:1 74119:1 81188:1 98752:1 
0 14.39645232255261 41:1 21850:1 36282:1 55844:1 72786:1 72805:1 72832:1 72846:1 74604:1 84716:1 98752:1 
0 3.773093470253301 4225:1 22233:1 37345:1 54810:1 72785:1 72805:1 72826:1 72844:1 72881:1 79643:1 98759:1 
15.02920512372447 2.222687595199868 3858:1 17170:1 36281:1 55314:1 72787:1 72806:1 72831:1 72846:1 72864:1 73817:1 82584:1 98752:1 
2.148201207979073 0 4644:1 17290:1 36281:1 57257:1 72785:1 72806:1 72831:1 72846:1 73879:1 81736:1 98752:1 
3.704453323876539 0 1154:1 17168:1 36281:1 54821:1 72786:1 72806:1 72831:1 72852:1 72864:1 73068:1 84796:1 98765:1 
1.181338941642857 0 36292:1 55326:1 72826:1 72854:1 72864:1 73373:1 80190:1 98752:1 
5.731455187420309 0 36292:1 54837:1 72826:1 72844:1 72864:1 72889:1 80274:1 98752:1 
0 0.1272183014304055 7:1 18795:1 41351:1 54911:1 72784:1 72805:1 72824:1 72846:1 72967:1 79728:1 98756:1 
22.35731081356674 2.444912147265987 36553:1 54968:1 72826:1 72850:1 72864:1 73871:1 84793:1 98752:1 
0 4.208126209580815 29:1 22310:1 36281:1 54869:1 72789:1 72805:1 72829:1 72852:1 74191:1 84813:1 98752:1 
8.499273044828922 0 36292:1 59750:1 72826:1 72845:1 72864:1 73621:1 84815:1 98752:1 
0 0.5214708363717565 142:1 22339:1 36632:1 54889:1 72786:1 72805:1 72828:1 72844:1 73486:1 80307:1 98751:1 
9.365673212935217 0 36298:1 55983:1 72828:1 72845:1 72864:1 73949:1 82854:1 98752:1 
2.27316317334723 0 2900:1 17178:1 36282:1 59757:1 72785:1 72809:1 72832:1 72845:1 72864:1 73877:1 80877:1 98752:1 
0 4.277504651466693 29:1 18395:1 41369:1 55217:1 72789:1 72805:1 72824:1 72846:1 72881:1 79643:1 98759:1 
0 5.242153926709117 1096:1 17163:1 36585:1 55686:1 72785:1 72811:1 72826:1 72845:1 75756:1 84824:1 98752:1 
2.41316150679459 0 36348:1 56567:1 72830:1 72848:1 72864:1 73579:1 81390:1 98752:1 
1.706860079803149 0 10:1 18349:1 36313:1 54971:1 72784:1 72805:1 72832:1 72850:1 72864:1 73877:1 80877:1 98752:1 
34.33405322481961 0 13:1 17202:1 36287:1 55189:1 72790:1 72806:1 72825:1 72848:1 72864:1 75769:1 84884:1 98752:1 
0 1.774019541796994 4735:1 17168:1 37533:1 54815:1 72785:1 72806:1 72824:1 72849:1 72919:1 80033:1 98756:1 
25.57461568844084 0 36309:1 54831:1 72826:1 72846:1 72864:1 74800:1 79836:1 98752:1 
0 0.7526027566526388 196:1 17190:1 36287:1 54836:1 72785:1 72807:1 72825:1 72845:1 72977:1 79652:1 98754:1 
8.809938575430589 4.410885722536429 4743:1 17612:1 36758:1 54820:1 72793:1 72806:1 72834:1 72851:1 72864:1 72983:1 82630:1 98752:1 
0 2.124652431402835 41:1 22413:1 41443:1 54869:1 72786:1 72805:1 72824:1 72844:1 73382:1 82595:1 98756:1 
1.852629971990425 0 184:1 17756:1 37621:1 72784:1 72807:1 72829:1 72865:1 73074:1 79824:1 98755:1 
0 10.18227458583509 22334:1 36281:1 54885:1 72809:1 72831:1 72850:1 73601:1 84911:1 98752:1 
16.72294574639725 0 36281:1 59844:1 72831:1 72845:1 72864:1 73178:1 84914:1 98752:1 
1.068875511906238 0 39:1 19109:1 38300:1 54815:1 72787:1 72807:1 72828:1 72849:1 73421:1 84904:1 98752:1 
0 15.26031815436385 190:1 18056:1 36464:1 54815:1 72796:1 72804:1 72836:1 72849:1 74491:1 84919:1 98752:1 
16.78857191472719 0.5936873796284368 473:1 17163:1 36348:1 56743:1 72785:1 72811:1 72827:1 72845:1 72864:1 73264:1 79816:1 98752:1 
0 2.130332431228235 176:1 17230:1 36311:1 54815:1 72785:1 72808:1 72825:1 72849:1 73587:1 81668:1 98752:1 
18.82078265248108 0 36337:1 54826:1 72826:1 72844:1 72864:1 74541:1 84921:1 98752:1 
23.94304212573234 0 36309:1 54885:1 72826:1 72847:1 72864:1 75781:1 84922:1 98752:1 
10.01798703912319 0 36309:1 56204:1 72826:1 72854:1 72864:1 73871:1 84793:1 98752:1 
1.057852789571513 0 50:1 17170:1 36309:1 54825:1 72786:1 72812:1 72826:1 72846:1 74915:1 84890:1 98752:1 
0 0.3254830825324453 4695:1 22453:1 41480:1 54821:1 72785:1 72805:1 72824:1 72852:1 72881:1 79643:1 98759:1 
3.145806160419151 0 6:1 17162:1 36282:1 55102:1 72788:1 72810:1 72832:1 72844:1 72864:1 73514:1 80338:1 98756:1 
73.54876578712489 0 190:1 17350:1 36278:1 55842:1 72796:1 72816:1 72830:1 72845:1 72864:1 73368:1 80175:1 98752:1 
0 3.610344399172604 190:1 17693:1 37341:1 54849:1 72796:1 72805:1 72824:1 72844:1 72877:1 79639:1 98751:1 
20.13373313602693 0 36313:1 55208:1 72832:1 72850:1 72864:1 75795:1 84964:1 98752:1 
14.53790790752961 0 17350:1 36916:1 54868:1 72816:1 72830:1 72846:1 72864:1 73579:1 81390:1 98752:1 
0 7.651576227353707 190:1 18907:1 36331:1 54820:1 72796:1 72805:1 72826:1 72851:1 74403:1 79836:1 98751:1 
1.063715464859964 0 17350:1 36935:1 54812:1 72816:1 72824:1 72846:1 72864:1 72966:1 79639:1 98751:1 
0 22.27324855785332 190:1 17159:1 36272:1 54897:1 72796:1 72804:1 72826:1 72847:1 72864:1 73485:1 80306:1 98752:1 
0.1577006332174315 0 13:1 17650:1 36320:1 55087:1 72794:1 72807:1 72833:1 72846:1 74425:1 81686:1 98752:1 
44.06684541527597 0 17350:1 36281:1 55000:1 72816:1 72831:1 72856:1 72864:1 75806:1 84992:1 98752:1 
0 18.70595899454847 190:1 22509:1 36464:1 54958:1 72796:1 72805:1 72836:1 72846:1 72880:1 79642:1 98758:1 
0 0.3302866192100186 568:1 22505:1 36437:1 54822:1 72785:1 72805:1 72830:1 72854:1 73112:1 81019:1 98751:1 
7.809523216335389 0 17350:1 36351:1 54911:1 72816:1 72828:1 72846:1 72864:1 72941:1 79703:1 98761:1 
0 17.21517835348239 190:1 17388:1 36275:1 72796:1 72804:1 72829:1 72864:1 73104:1 79869:1 98752:1 
50.50418987983612 4.539416784745072 29:1 17168:1 72786:1 72806:1 72864:1 75808:1 84997:1 98752:1 
1.524098481179373 0 17350:1 36632:1 54980:1 72816:1 72828:1 72844:1 72864:1 75114:1 85000:1 98754:1 
0.8588008183036043 0 190:1 17350:1 36275:1 72796:1 72816:1 72829:1 72864:1 75809:1 85003:1 98765:1 
0 9.064595129992686 10:1 18349:1 36904:1 54815:1 72784:1 72805:1 72834:1 72849:1 72864:1 73877:1 80877:1 98752:1 
37.08379447789041 0 36269:1 54826:1 72824:1 72844:1 72864:1 73885:1 84812:1 98752:1 
0 9.366625212819919 17230:1 36273:1 55010:1 72804:1 72827:1 72846:1 72864:1 73564:1 82585:1 98752:1 
2.509488104674066 0 13:1 17362:1 36282:1 54898:1 72790:1 72809:1 72832:1 72846:1 72864:1 72992:1 79751:1 98752:1 
0 5.482048411072424 190:1 17361:1 36961:1 55398:1 72796:1 72807:1 72830:1 72845:1 72864:1 72948:1 79710:1 98755:1 
6.802109515616722 0 17350:1 37266:1 54831:1 72816:1 72824:1 72846:1 72864:1 74341:1 81013:1 98751:1 
0 40.47972577342969 23:1 17156:1 36329:1 55010:1 72787:1 72808:1 72834:1 72846:1 72864:1 72948:1 79710:1 98755:1 
28.64406594299194 0.6552509552671186 7:1 17172:1 36450:1 54813:1 72788:1 72807:1 72826:1 72847:1 72864:1 72948:1 79710:1 98755:1 
3.159724005530817 0 17350:1 36523:1 54866:1 72816:1 72826:1 72854:1 72864:1 72871:1 79633:1 98755:1 
29.79532229978913 0 190:1 17350:1 36275:1 72796:1 72816:1 72829:1 72864:1 73464:1 85036:1 98752:1 
6.477802241865239 0 190:1 17350:1 37621:1 72796:1 72816:1 72829:1 72864:1 75823:1 85040:1 98765:1 
0 0.3176880485836312 77:1 22329:1 36458:1 54911:1 72788:1 72805:1 72827:1 72846:1 72968:1 79791:1 98752:1 
34.91222302648881 0 36309:1 54835:1 72826:1 72848:1 72864:1 73032:1 80205:1 98752:1 
0 31.1917734343656 190:1 17168:1 36281:1 55000:1 72796:1 72805:1 72829:1 72856:1 75825:1 85048:1 98751:1 
3.91161980436527 0 17350:1 36281:1 59827:1 72816:1 72831:1 72845:1 72864:1 75826:1 79949:1 98754:1 
2.340167233471546 0 41588:1 54820:1 72824:1 72851:1 72864:1 73127:1 80531:1 98752:1 
7.604173111289515 0 17350:1 36725:1 56037:1 72816:1 72828:1 72850:1 72864:1 73261:1 80063:1 98751:1 
4.608740511226153 0 17350:1 37691:1 54812:1 72816:1 72824:1 72846:1 72864:1 73930:1 81531:1 98756:1 
13.85295749951216 0 842:1 17168:1 36281:1 54817:1 72785:1 72806:1 72831:1 72850:1 72864:1 73125:1 79751:1 98752:1 
9.662843215328197 0 17350:1 38230:1 54958:1 72816:1 72841:1 72846:1 72864:1 73252:1 84739:1 98752:1 
0 8.669054278067456 190:1 22256:1 36422:1 54830:1 72796:1 72805:1 72826:1 72847:1 74090:1 81154:1 98764:1 
28.06126212769497 0 17350:1 36510:1 72816:1 72829:1 72864:1 73252:1 84739:1 98752:1 
10.15239247266062 0 17350:1 36281:1 54813:1 72816:1 72831:1 72847:1 72864:1 75833:1 85066:1 98765:1 
28.33801633036458 0 17350:1 36281:1 54994:1 72816:1 72831:1 72847:1 72864:1 75834:1 85067:1 98752:1 
30.74458033465458 0 190:1 17350:1 36510:1 72796:1 72816:1 72829:1 72864:1 74210:1 84068:1 98752:1 
3.22875598664745 0 17350:1 36485:1 56761:1 72816:1 72826:1 72845:1 72864:1 72959:1 79722:1 98755:1 
6.137762139630435 0 13:1 17206:1 37745:1 55003:1 72790:1 72811:1 72826:1 72844:1 72864:1 73211:1 82585:1 98752:1 
3.705153680230555 0 36388:1 54960:1 72825:1 72846:1 72864:1 74459:1 85074:1 98752:1 
25.28521958776891 14.67438656412689 36309:1 55027:1 72826:1 72854:1 72864:1 73265:1 80048:1 98752:1 
14.4080277955757 0 36281:1 56746:1 72831:1 72848:1 72864:1 74210:1 85090:1 98752:1 
8.804782723498993 0 271:1 17554:1 36298:1 57611:1 72787:1 72806:1 72828:1 72845:1 74941:1 80847:1 98752:1 
11.27174451351988 4.944429676566095 1070:1 17178:1 36281:1 54857:1 72785:1 72809:1 72831:1 72844:1 72864:1 73211:1 82585:1 98752:1 
21.61026675331198 0 17350:1 37182:1 54823:1 72816:1 72824:1 72846:1 72864:1 72956:1 79719:1 98751:1 
0 5.437017308872813 13:1 22642:1 36275:1 72790:1 72805:1 72829:1 75846:1 85127:1 98752:1 
24.03751126125771 0 17350:1 36281:1 55000:1 72816:1 72831:1 72856:1 72864:1 74539:1 81957:1 98765:1 
11.92986437896572 6.281768239850575 37604:1 54826:1 72826:1 72844:1 72864:1 75459:1 85131:1 98752:1 
0 0.4008395357311172 19:1 17792:1 37182:1 54815:1 72786:1 72805:1 72824:1 72849:1 72966:1 79639:1 98751:1 
15.55639859044851 13.98550389153285 7:1 17159:1 36281:1 54821:1 72788:1 72804:1 72831:1 72852:1 72864:1 75019:1 82976:1 98752:1 
55.59117071613252 0 17350:1 37260:1 54820:1 72816:1 72824:1 72851:1 72864:1 72984:1 79728:1 98756:1 
0 14.56936419185125 190:1 17248:1 36281:1 55000:1 72796:1 72809:1 72831:1 72856:1 73730:1 80642:1 98752:1 
19.32858665950362 0 10:1 21751:1 36281:1 54866:1 72784:1 72809:1 72831:1 72854:1 72864:1 72980:1 85151:1 98752:1 
6.590437542757401 0 37285:1 54944:1 72826:1 72844:1 72864:1 74072:1 80002:1 98752:1 
0 10.756908357043 16:1 18440:1 41700:1 54821:1 72787:1 72805:1 72824:1 72852:1 72886:1 79648:1 98753:1 
0 6.049415508175746 10:1 18349:1 36275:1 72784:1 72805:1 72829:1 72864:1 73877:1 80877:1 98752:1 
5.248253802005062 0 37285:1 55063:1 72826:1 72847:1 72864:1 73233:1 80125:1 98752:1 
1.396364716261666 0 13:1 17581:1 37513:1 54816:1 72790:1 72808:1 72826:1 72844:1 72864:1 72933:1 79695:1 98762:1 
0 3.593466450486894 4999:1 17605:1 36747:1 55247:1 72787:1 72805:1 72824:1 72844:1 73597:1 79992:1 98751:1 
17.29447850068161 0 17350:1 36281:1 59841:1 72816:1 72831:1 72845:1 72864:1 73780:1 80723:1 98765:1 
23.65934052762507 4.82406550155646 36424:1 54899:1 72826:1 72853:1 72864:1 72912:1 85222:1 98752:1 
6.198734762053038 0 36309:1 55864:1 72826:1 72854:1 72864:1 73798:1 85225:1 98752:1 
10.9566644289054 0 38114:1 55124:1 72826:1 72849:1 72864:1 73252:1 85229:1 98752:1 
0 3.818761287396119 4872:1 21206:1 41589:1 57412:1 72785:1 72805:1 72824:1 72846:1 72905:1 79664:1 98753:1 
0 11.75599000277089 91:1 18189:1 41765:1 54911:1 72792:1 72805:1 72824:1 72846:1 72886:1 79648:1 98753:1 
0.6604515011738686 0 36854:1 60167:1 72839:1 72848:1 72864:1 75177:1 83366:1 98752:1 
0 8.417052908915172 13:1 22800:1 41815:1 55000:1 72790:1 72805:1 72824:1 72856:1 72881:1 79643:1 98759:1 
0 8.85944214509373 5084:1 17163:1 36464:1 54815:1 72785:1 72811:1 72836:1 72849:1 72923:1 85285:1 98752:1 
0 4.040463336059196 126:1 22802:1 41817:1 54821:1 72787:1 72805:1 72824:1 72852:1 72888:1 79650:1 98753:1 
119.0698415158391 0 41822:1 55124:1 72830:1 72849:1 72864:1 73880:1 85253:1 98752:1 
24.32503958650756 0 36281:1 54971:1 72831:1 72850:1 72864:1 75596:1 84361:1 98752:1 
0 7.010954163799152 5104:1 22809:1 36282:1 60216:1 72785:1 72805:1 72832:1 72845:1 75905:1 85313:1 98752:1 
0 18.80769156385238 19:1 22845:1 36275:1 72786:1 72805:1 72829:1 75908:1 85330:1 98752:1 
0 2.045943054669695 373:1 17557:1 38304:1 54826:1 72786:1 72805:1 72826:1 72844:1 72881:1 79643:1 98759:1 
5.097301561374747 0 39323:1 54815:1 72834:1 72849:1 72864:1 73762:1 80302:1 98752:1 
7.07080944046915 0 5139:1 17162:1 36777:1 54820:1 72785:1 72810:1 72824:1 72851:1 72864:1 73349:1 80338:1 98756:1 
18.49145783635167 0 36665:1 56543:1 72825:1 72845:1 72864:1 75754:1 85354:1 98752:1 
31.46396082744144 0 36348:1 54916:1 72827:1 72846:1 72864:1 74541:1 85357:1 98752:1 
0 0.9364747928537814 22873:1 36379:1 54821:1 72805:1 72826:1 72852:1 72948:1 79710:1 98755:1 
1.399759097531364 0 36282:1 60261:1 72832:1 72845:1 72864:1 72910:1 85362:1 98752:1 
11.17962477568621 0 36281:1 56341:1 72831:1 72845:1 72864:1 72887:1 85372:1 98752:1 
6.63771399067639 0 36929:1 55130:1 72826:1 72854:1 72864:1 74277:1 81425:1 98752:1 
19.17136778970791 20.67320131313145 272:1 19345:1 36275:1 72789:1 72805:1 72829:1 72864:1 73036:1 85410:1 98752:1 
12.61649726650649 0 262:1 17554:1 36282:1 54935:1 72786:1 72806:1 72832:1 72846:1 74425:1 85424:1 98752:1 
0 1.672509745982854 373:1 22940:1 36398:1 58119:1 72786:1 72805:1 72826:1 72845:1 72881:1 79643:1 98759:1 
6.817164504986575 0 43:1 17692:1 36281:1 54941:1 72791:1 72807:1 72831:1 72852:1 75949:1 85431:1 98752:1 
0 1.968332054474764 5206:1 22949:1 41960:1 60328:1 72785:1 72805:1 72824:1 72845:1 72881:1 79643:1 98759:1 
3.258950816441362 6.131975735799401 23:1 17156:1 36333:1 54916:1 72787:1 72808:1 72835:1 72846:1 72864:1 73630:1 82124:1 98756:1 
1.363265097845351 0 43:1 17159:1 36282:1 55362:1 72791:1 72804:1 72832:1 72846:1 72864:1 73877:1 80877:1 98752:1 
18.07773275293369 0 36418:1 54820:1 72824:1 72851:1 72864:1 75968:1 81425:1 98752:1 
0 5.03886334262857 18942:1 36281:1 58350:1 72805:1 72831:1 72845:1 73135:1 79781:1 98752:1 
0 5.531183239504436 13:1 20883:1 36281:1 60347:1 72790:1 72805:1 72831:1 72845:1 73409:1 80665:1 98752:1 
9.57153255435759 0 36277:1 60349:1 72825:1 72845:1 72864:1 73617:1 85456:1 98752:1 
0 2.03001346121784 5233:1 22771:1 36275:1 72787:1 72805:1 72829:1 73915:1 81249:1 98756:1 
17.19987365137416 0 36281:1 54971:1 72831:1 72850:1 72864:1 73581:1 80310:1 98752:1 
14.11157507298358 0 36292:1 54866:1 72826:1 72854:1 72864:1 74728:1 85469:1 98752:1 
45.08862022756544 11.58675989058399 667:1 17168:1 36281:1 54830:1 72785:1 72806:1 72829:1 72847:1 72864:1 74067:1 85474:1 98752:1 
9.538982102392472 0 40201:1 54885:1 72826:1 72847:1 72864:1 73156:1 85477:1 98752:1 
0 13.72818464586954 34:1 18440:1 37774:1 54820:1 72786:1 72805:1 72824:1 72849:1 72888:1 79650:1 98753:1 
0 3.431356031548529 724:1 22978:1 36281:1 54885:1 72785:1 72805:1 72829:1 72847:1 73670:1 85486:1 98752:1 
0 0.3483968031903656 29:1 22978:1 36346:1 60379:1 72789:1 72805:1 72825:1 72845:1 72936:1 79698:1 98752:1 
6.745671133818893 0 5256:1 17162:1 36347:1 54970:1 72785:1 72814:1 72826:1 72847:1 74425:1 85304:1 98752:1 
38.64414791320375 0 637:1 17178:1 36282:1 54901:1 72787:1 72806:1 72832:1 72846:1 72864:1 74405:1 85489:1 98752:1 
8.414872957349909 0 36383:1 54911:1 72824:1 72846:1 72864:1 73042:1 79802:1 98751:1 
0 10.60472485189915 83:1 18131:1 36360:1 54977:1 72787:1 72805:1 72827:1 72846:1 72888:1 79650:1 98760:1 
17.49877421216238 0 36275:1 72829:1 72864:1 74847:1 80335:1 98752:1 
0 1.74033690589778 34:1 21239:1 40941:1 54899:1 72786:1 72805:1 72824:1 72853:1 72881:1 79643:1 98759:1 
0 7.273485939532475 373:1 23032:1 42039:1 54821:1 72786:1 72805:1 72824:1 72852:1 72881:1 79643:1 98759:1 
9.202140362214646 0 36362:1 56506:1 72833:1 72845:1 72864:1 73308:1 79937:1 98752:1 
0 5.775867576008572 718:1 23048:1 38509:1 54821:1 72787:1 72805:1 72824:1 72852:1 72905:1 79664:1 98753:1 
6.502882151101707 0 1021:1 17163:1 36946:1 60426:1 72785:1 72811:1 72830:1 72845:1 74403:1 79836:1 98752:1 
0 15.67878792014394 14:1 17356:1 42056:1 55478:1 72791:1 72805:1 72824:1 72850:1 73345:1 80317:1 98751:1 
0 10.86902503781414 196:1 17835:1 36961:1 55421:1 72785:1 72804:1 72830:1 72854:1 73087:1 85534:1 98752:1 
12.62071016945862 0 36510:1 72829:1 72864:1 74183:1 81285:1 98752:1 
5.496455645469227 0 42019:1 55091:1 72825:1 72845:1 72865:1 73517:1 80712:1 98752:1 
0 0.1333284637532958 1021:1 23013:1 36282:1 55902:1 72785:1 72806:1 72832:1 72845:1 73150:1 79925:1 98752:1 
4.615672632348569 0 17238:1 36291:1 54816:1 72808:1 72827:1 72844:1 72865:1 72895:1 79652:1 98754:1 
0 1.316709897739657 7:1 17158:1 36510:1 72788:1 72806:1 72829:1 72865:1 73490:1 79710:1 98755:1 
8.612508635288744 0 36700:1 54893:1 72825:1 72847:1 72864:1 73191:1 85573:1 98752:1 
3.39760988652168 0 36282:1 60460:1 72832:1 72845:1 72864:1 72903:1 85574:1 98752:1 
11.42691330800978 0 36275:1 72829:1 72864:1 72939:1 85581:1 98752:1 
0 0.1362395020108979 4453:1 17163:1 36282:1 60471:1 72785:1 72811:1 72832:1 72845:1 74384:1 85586:1 98752:1 
0 0.5528220439122465 14:1 23102:1 42102:1 54821:1 72791:1 72805:1 72824:1 72852:1 72881:1 79643:1 98759:1 
0 0.5525820352202594 14:1 23103:1 42103:1 54821:1 72791:1 72805:1 72824:1 72852:1 72881:1 79643:1 98759:1 
0 1.689563915459131 5345:1 17163:1 36304:1 60473:1 72785:1 72811:1 72825:1 72845:1 73549:1 80381:1 98752:1 
3.765894049036657 0 38230:1 54830:1 72841:1 72847:1 72864:1 74369:1 85599:1 98752:1 
9.572891525462218 0 36277:1 60485:1 72825:1 72845:1 72864:1 76014:1 83910:1 98752:1 
0 1.028054204769024 9:1 23119:1 42117:1 54826:1 72786:1 72805:1 72824:1 72844:1 72881:1 79643:1 98759:1 
25.80888127052087 0 36319:1 55043:1 72825:1 72849:1 72864:1 73684:1 79746:1 98752:1 
15.81643755597183 0 42118:1 60487:1 72824:1 72845:1 72864:1 73253:1 80945:1 98752:1 
0 6.438279581095834 19:1 19676:1 36510:1 72786:1 72805:1 72829:1 74606:1 85607:1 98752:1 
4.192971843125359 0 17350:1 38029:1 54821:1 72816:1 72824:1 72852:1 72864:1 74536:1 81364:1 98756:1 
1.938457796202428 0 41785:1 54815:1 72824:1 72849:1 72864:1 73238:1 82243:1 98752:1 
128 0 36275:1 72829:1 72864:1 73309:1 80087:1 98752:1 
0 2.848392357525814 2376:1 18181:1 36817:1 54821:1 72787:1 72805:1 72824:1 72852:1 73304:1 80094:1 98753:1 
13.82155995703041 0 36424:1 60500:1 72826:1 72848:1 72864:1 74502:1 85620:1 98752:1 
24.04566713948153 0 36292:1 54942:1 72826:1 72848:1 72864:1 73257:1 79925:1 98752:1 
0 3.2543937925805 23:1 18181:1 36309:1 58295:1 72787:1 72805:1 72826:1 72845:1 72948:1 79710:1 98755:1 
0 6.438878544392279 2153:1 17168:1 36281:1 54830:1 72785:1 72806:1 72831:1 72847:1 73265:1 85637:1 98752:1 
0 18.13942309978266 568:1 23161:1 36585:1 55942:1 72785:1 72805:1 72826:1 72847:1 72948:1 79710:1 98755:1 
0 16.37268721472159 373:1 23162:1 38069:1 54826:1 72786:1 72805:1 72824:1 72844:1 72881:1 79643:1 98759:1 
7.089199784161442 0 40647:1 55423:1 72826:1 72844:1 72864:1 73265:1 85637:1 98752:1 
0 0.7004809032386553 77:1 17612:1 38485:1 57919:1 72788:1 72806:1 72828:1 72845:1 72948:1 79710:1 98751:1 
2.301566311801347 0 13:1 17211:1 36982:1 55149:1 72794:1 72813:1 72824:1 72850:1 72864:1 73899:1 81110:1 98754:1 
25.75400664413295 6.948528043013784 63:1 17165:1 36275:1 72795:1 72807:1 72829:1 72864:1 76034:1 85669:1 98752:1 
0 3.159178834553906 14:1 23170:1 36522:1 54823:1 72791:1 72805:1 72824:1 72846:1 72886:1 79648:1 98753:1 
0 1.171065577574395 14:1 18642:1 36287:1 54908:1 72791:1 72809:1 72825:1 72850:1 76037:1 85685:1 98752:1 
0 5.145662159265155 14:1 23203:1 42199:1 54826:1 72791:1 72805:1 72824:1 72844:1 72881:1 79643:1 98759:1 
0 2.265622990153326 19:1 20639:1 42209:1 54977:1 72786:1 72805:1 72824:1 72846:1 72915:1 79674:1 98759:1 
0 1.524635118233227 9:1 23215:1 42211:1 55464:1 72786:1 72805:1 72824:1 72846:1 72905:1 79664:1 98753:1 
0 5.202239922574098 5459:1 19927:1 36382:1 54842:1 72799:1 72805:1 72830:1 72845:1 74744:1 80999:1 98752:1 
0 0.07463557247447906 29:1 23242:1 36281:1 54974:1 72789:1 72805:1 72829:1 72847:1 74100:1 85727:1 98752:1 
0 0.007569022083638524 13:1 21620:1 37035:1 54820:1 72794:1 72805:1 72826:1 72849:1 72948:1 79710:1 98751:1 
21.67786813828553 0 36281:1 54958:1 72831:1 72846:1 72864:1 73399:1 85732:1 98752:1 
3.138452792371172 0 16:1 17168:1 36351:1 55592:1 72787:1 72806:1 72828:1 72854:1 74218:1 83599:1 98752:1 
0.5048727392258593 0 13:1 17253:1 37513:1 55483:1 72794:1 72804:1 72826:1 72845:1 72974:1 84506:1 98752:1 
18.68943713215515 0 17350:1 42257:1 54815:1 72816:1 72824:1 72849:1 72864:1 74277:1 81425:1 98752:1 
0 15.44411456565477 29:1 17859:1 36275:1 72789:1 72805:1 72829:1 73383:1 85770:1 98752:1 
9.218539024597851 0 36281:1 56655:1 72831:1 72848:1 72864:1 73148:1 85771:1 98752:1 
0 1.687991620258181 5520:1 23298:1 42291:1 54857:1 72785:1 72805:1 72824:1 72853:1 73382:1 85782:1 98756:1 
0 13.62030910998105 5524:1 23302:1 42280:1 55000:1 72785:1 72805:1 72824:1 72856:1 72881:1 79643:1 98759:1 
0 3.381103425425942 5525:1 17163:1 36464:1 60658:1 72785:1 72811:1 72836:1 72848:1 74418:1 85772:1 98752:1 
0 19.01812469438918 190:1 23303:1 36464:1 54815:1 72796:1 72809:1 72836:1 72849:1 73689:1 85787:1 98752:1 
0 4.92053966993768 724:1 23307:1 36287:1 60663:1 72785:1 72805:1 72825:1 72845:1 73897:1 79909:1 98752:1 
0 0.8160185778203782 91:1 23254:1 36272:1 59375:1 72792:1 72805:1 72826:1 72846:1 72864:1 72992:1 79751:1 98752:1 
0.9269284681861645 0 38530:1 54815:1 72824:1 72849:1 72864:1 73018:1 81285:1 98752:1 
14.18886960079907 0 17479:1 36281:1 55652:1 72817:1 72831:1 72848:1 72864:1 73656:1 80528:1 98752:1 
0 2.643730026144898 239:1 23254:1 42262:1 60669:1 72793:1 72805:1 72824:1 72845:1 74135:1 81209:1 98756:1 
0 6.308982336027521 5480:1 18726:1 42261:1 60670:1 72785:1 72809:1 72824:1 72845:1 73644:1 85754:1 98752:1 
0 3.252484834753964 29:1 23254:1 36275:1 72786:1 72805:1 72829:1 75353:1 85750:1 98752:1 
0 1.389748661386075 19:1 18374:1 36681:1 55036:1 72786:1 72805:1 72830:1 72845:1 74058:1 81108:1 98760:1 
17.94583205562239 0 36292:1 54830:1 72826:1 72850:1 72864:1 73673:1 85749:1 98752:1 
30.96783238837476 9.718735726269646 42312:1 55369:1 72824:1 72858:1 72864:1 73850:1 85804:1 98752:1 
18.89599140842911 0 49:1 17158:1 36282:1 55565:1 72786:1 72806:1 72832:1 72846:1 76082:1 85814:1 98752:1 
0 7.615067252720778 5553:1 23335:1 37525:1 54815:1 72785:1 72805:1 72824:1 72849:1 72886:1 79648:1 98753:1 
0 26.60339917395405 7:1 23344:1 36275:1 72785:1 72805:1 72829:1 75781:1 84922:1 98752:1 
17.91713607102153 0 37472:1 54994:1 72826:1 72847:1 72864:1 72974:1 82326:1 98752:1 
16.26463066421777 0.5836954081460854 13:1 18465:1 37717:1 55063:1 72790:1 72809:1 72826:1 72847:1 72864:1 73662:1 85833:1 98752:1 
0 18.73976125638264 19:1 18440:1 38803:1 54868:1 72786:1 72805:1 72824:1 72846:1 72881:1 79643:1 98759:1 
0 4.934510372898553 41:1 23254:1 37007:1 54869:1 72786:1 72805:1 72824:1 72844:1 72973:1 79734:1 98756:1 
49.26548128016464 1.997041362433888 230:1 17184:1 36919:1 54908:1 72787:1 72806:1 72841:1 72850:1 72864:1 73032:1 85858:1 98752:1 
1.554797813141282 0 36292:1 55193:1 72826:1 72848:1 72864:1 74291:1 85861:1 98752:1 
0 5.421808357984811 19:1 23352:1 38844:1 54951:1 72786:1 72805:1 72826:1 72848:1 73489:1 79649:1 98752:1 
8.021923741597028 0 36379:1 56306:1 72826:1 72848:1 72864:1 73528:1 85600:1 98752:1 
29.57604863725569 0 17350:1 36464:1 54815:1 72816:1 72836:1 72849:1 72864:1 74466:1 85866:1 98752:1 
17.50417768500388 0 36275:1 72829:1 72864:1 74416:1 85778:1 98752:1 
0 1.808569133987747 100:1 23265:1 42266:1 55369:1 72784:1 72809:1 72824:1 72858:1 73579:1 82249:1 98752:1 
14.63400940632274 0 23:1 17491:1 38221:1 54897:1 72787:1 72812:1 72824:1 72847:1 72864:1 74627:1 79700:1 98751:1 
7.322475151840723 0 36372:1 60615:1 72828:1 72845:1 72864:1 72874:1 79636:1 98751:1 
16.67563114753452 0 120:1 17234:1 36434:1 60741:1 72789:1 72812:1 72826:1 72854:1 72864:1 73032:1 85858:1 98752:1 
0 15.06110580330477 41:1 23254:1 37007:1 54899:1 72786:1 72805:1 72824:1 72853:1 72967:1 79728:1 98756:1 
0 1.291160534968713 5480:1 17248:1 36362:1 54970:1 72785:1 72809:1 72833:1 72847:1 73549:1 80381:1 98752:1 
26.52250368034175 0 36276:1 54857:1 72826:1 72844:1 72864:1 73551:1 81038:1 98752:1 
0 0.5692203745016138 34:1 18547:1 37007:1 55430:1 72786:1 72805:1 72824:1 72846:1 73310:1 80104:1 98753:1 
3.005693192700809 0 36348:1 55072:1 72827:1 72844:1 72864:1 76108:1 80243:1 98754:1 
8.428360649173785 0 36638:1 60764:1 72828:1 72845:1 72864:1 73404:1 80225:1 98751:1 
0 1.820898734525378 5061:1 17745:1 36856:1 56138:1 72785:1 72820:1 72840:1 72846:1 76030:1 85642:1 98751:1 
0 1.39503819666102 5648:1 17163:1 36282:1 56076:1 72799:1 72811:1 72832:1 72846:1 74014:1 85899:1 98752:1 
9.651363138018812 0 36310:1 54942:1 72826:1 72848:1 72864:1 72903:1 85924:1 98752:1 
0.529451321296205 0 17350:1 36602:1 55186:1 72816:1 72834:1 72846:1 72864:1 74277:1 81425:1 98752:1 
0 4.867564749023448 190:1 18942:1 36658:1 55000:1 72796:1 72805:1 72826:1 72856:1 73194:1 79973:1 98761:1 
23.04408402259712 0 17479:1 36422:1 54929:1 72817:1 72826:1 72848:1 72864:1 72903:1 85962:1 98752:1 
0 2.30758887674196 517:1 19310:1 36287:1 56826:1 72787:1 72805:1 72825:1 72845:1 72935:1 79697:1 98751:1 
0 19.2454943707382 13:1 22936:1 38675:1 55291:1 72790:1 72805:1 72824:1 72846:1 72881:1 79643:1 98759:1 
0 2.532908928949484 34:1 17538:1 42466:1 54820:1 72786:1 72805:1 72824:1 72851:1 73099:1 79939:1 98753:1 
0 0.6570877585765583 359:1 17458:1 36281:1 55265:1 72785:1 72806:1 72831:1 72853:1 75204:1 85963:1 98752:1 
12.76359431977382 0 36282:1 60824:1 72832:1 72845:1 72864:1 76126:1 85972:1 98752:1 
0 7.889183244018411 2801:1 17168:1 36281:1 54878:1 72785:1 72806:1 72831:1 72854:1 72896:1 85984:1 98752:1 
0 0.4200643622882715 5705:1 23506:1 42493:1 54821:1 72787:1 72805:1 72824:1 72852:1 72932:1 79694:1 98753:1 
0 1.975822154669704 1432:1 17458:1 36281:1 55221:1 72785:1 72806:1 72829:1 72847:1 76135:1 85995:1 98752:1 
0 0.6722531385014031 5640:1 23523:1 42511:1 54899:1 72785:1 72809:1 72826:1 72853:1 74139:1 86007:1 98756:1 
11.25102352809403 0 42513:1 59858:1 72826:1 72854:1 72864:1 73278:1 85959:1 98752:1 
0 10.80802767709797 190:1 23017:1 36464:1 54849:1 72796:1 72809:1 72836:1 72844:1 72971:1 80811:1 98752:1 
11.53091882409164 0 36272:1 56495:1 72826:1 72846:1 72864:1 73094:1 80381:1 98752:1 
0 4.399270593372394 190:1 19057:1 42530:1 54815:1 72796:1 72805:1 72824:1 72849:1 72921:1 79682:1 98753:1 
15.81547622729639 0 591:1 17168:1 36281:1 54911:1 72793:1 72806:1 72829:1 72846:1 72864:1 74233:1 86043:1 98761:1 
0 2.189478627397391 100:1 17150:1 40246:1 54815:1 72784:1 72805:1 72826:1 72849:1 73418:1 80237:1 98752:1 
0 8.089067802653465 16:1 17275:1 36275:1 72787:1 72805:1 72829:1 74028:1 79776:1 98752:1 
16.71267721209006 4.388199766405597 39133:1 54820:1 72824:1 72851:1 72864:1 74410:1 86062:1 98752:1 
0 6.561119810031934 23579:1 36281:1 56058:1 72805:1 72831:1 72845:1 74857:1 82551:1 98752:1 
24.86859177713852 0 36595:1 72829:1 72864:1 73579:1 83096:1 98752:1 
15.71273467683529 0 37556:1 60786:1 72824:1 72845:1 72864:1 76114:1 83096:1 98752:1 
0 4.026863939129833 150:1 23476:1 36287:1 60935:1 72787:1 72805:1 72825:1 72845:1 72993:1 86075:1 98752:1 
0 16.32142689405119 3133:1 23438:1 36275:1 72785:1 72805:1 72829:1 73023:1 81084:1 98752:1 
9.455529376687734 0 37337:1 55185:1 72825:1 72845:1 72864:1 73136:1 85909:1 98752:1 
13.23102419004138 0 36282:1 60975:1 72832:1 72845:1 72864:1 76168:1 86113:1 98752:1 
0 9.382275185642108 5820:1 17163:1 38274:1 55053:1 72785:1 72811:1 72826:1 72854:1 73553:1 86114:1 98752:1 
0.3847231881077199 0 239:1 17244:1 36328:1 55435:1 72793:1 72812:1 72826:1 72848:1 73886:1 85898:1 98752:1 
2.255493521263338 0 36682:1 54949:1 72828:1 72844:1 72864:1 75177:1 83366:1 98752:1 
12.68744645196754 0 42621:1 60978:1 72826:1 72845:1 72864:1 73607:1 86118:1 98752:1 
11.68397323954562 0 36275:1 72829:1 72864:1 76127:1 86138:1 98752:1 
26.24879179532834 0 38057:1 54831:1 72824:1 72846:1 72864:1 74209:1 86139:1 98752:1 
0 0.4500106822396528 23656:1 36292:1 54857:1 72805:1 72826:1 72844:1 72998:1 81453:1 98752:1 
12.13745873700777 0 17350:1 42661:1 54813:1 72816:1 72824:1 72847:1 72864:1 72948:1 79710:1 98751:1 
20.32081991197714 3.463848828486819 36311:1 56018:1 72825:1 72845:1 72864:1 73590:1 82586:1 98752:1 
0 16.76952731361985 1129:1 23679:1 42664:1 61021:1 72785:1 72805:1 72828:1 72845:1 72932:1 79694:1 98753:1 
0 9.247421900997921 5866:1 18979:1 36529:1 54856:1 72785:1 72805:1 72827:1 72844:1 73024:1 84308:1 98752:1 
0 0.7452266460035829 2956:1 23684:1 37969:1 55000:1 72789:1 72805:1 72824:1 72856:1 72886:1 79648:1 98753:1 
0 3.262934385830552 5867:1 17168:1 36464:1 61025:1 72785:1 72806:1 72836:1 72845:1 75471:1 81368:1 98752:1 
11.15361652725111 0 17350:1 37794:1 54821:1 72816:1 72824:1 72852:1 72864:1 72935:1 79697:1 98751:1 
2.161781448822655 0 38096:1 54820:1 72826:1 72849:1 72864:1 73238:1 83177:1 98752:1 
51.96594973292611 18.87196830039157 5882:1 17168:1 36275:1 72785:1 72806:1 72829:1 72864:1 73032:1 86182:1 98752:1 
0 3.481810077827558 9:1 23708:1 37479:1 55010:1 72786:1 72805:1 72824:1 72846:1 72886:1 79648:1 98753:1 
28.98023983055551 0 9:1 17350:1 36464:1 54820:1 72786:1 72816:1 72836:1 72851:1 72865:1 76199:1 86215:1 98752:1 
0 1.270995587081277 190:1 23732:1 36281:1 55000:1 72796:1 72805:1 72831:1 72856:1 73070:1 79830:1 98763:1 
66.3297442169486 0 13:1 17350:1 36464:1 54821:1 72790:1 72816:1 72836:1 72852:1 72865:1 72868:1 86216:1 98752:1 
0 3.949067931843422 190:1 23733:1 36282:1 55000:1 72796:1 72805:1 72832:1 72856:1 73070:1 79830:1 98763:1 
36.12052322898532 0 14:1 17350:1 36464:1 54857:1 72791:1 72816:1 72836:1 72853:1 72864:1 76199:1 86217:1 98752:1 
0 14.07661705062683 190:1 23661:1 36464:1 54820:1 72796:1 72809:1 72836:1 72851:1 75189:1 86224:1 98752:1 
13.23330993177066 0 36282:1 61088:1 72832:1 72845:1 72864:1 76203:1 86232:1 98752:1 
6.008389953638693 0 36272:1 56531:1 72826:1 72846:1 72864:1 72909:1 86247:1 98752:1 
0 3.844915952586665 5944:1 23766:1 36304:1 56544:1 72789:1 72805:1 72825:1 72845:1 75668:1 86250:1 98752:1 
0 1.087988649749051 17253:1 42755:1 55217:1 72804:1 72824:1 72846:1 73823:1 80795:1 98751:1 
17.95000059374917 0 36328:1 56698:1 72826:1 72854:1 72864:1 75189:1 86267:1 98752:1 
7.450666645451203 0 36304:1 61124:1 72825:1 72845:1 72864:1 74012:1 81054:1 98752:1 
6.348744685051591 0 36270:1 59876:1 72825:1 72846:1 72864:1 72889:1 79629:1 98752:1 
6.444155216674206 0 17479:1 36282:1 56959:1 72817:1 72832:1 72845:1 72864:1 74132:1 80971:1 98752:1 
9.907024469722888 0 36282:1 56598:1 72832:1 72848:1 72864:1 74477:1 82813:1 98752:1 
18.77688812039432 0 36292:1 54817:1 72826:1 72850:1 72864:1 76177:1 86152:1 98752:1 
0 8.290614787068201 6006:1 23828:1 42807:1 59159:1 72785:1 72805:1 72824:1 72845:1 72886:1 79648:1 98753:1 
0 0.06652428930549731 71:1 23833:1 42811:1 54843:1 72793:1 72805:1 72826:1 72844:1 73782:1 83865:1 98752:1 
27.45373789665437 0.4201306693326907 6015:1 17184:1 36275:1 72785:1 72806:1 72829:1 72864:1 73167:1 86320:1 98752:1 
7.858991662534197 0 36272:1 57405:1 72826:1 72845:1 72864:1 73012:1 81478:1 98756:1 
0 1.156008264575101 34:1 23841:1 36275:1 72786:1 72805:1 72829:1 76234:1 86325:1 98751:1 
0 11.44276624289414 34:1 23828:1 42823:1 55036:1 72786:1 72805:1 72828:1 72845:1 72881:1 79643:1 98759:1 
8.971011142521641 0 36304:1 61183:1 72825:1 72845:1 72864:1 73878:1 81593:1 98752:1 
2.228093474295481 0 36292:1 61186:1 72826:1 72846:1 72864:1 72903:1 86333:1 98752:1 
0 3.028264381693857 19:1 17743:1 37279:1 54815:1 72786:1 72805:1 72824:1 72849:1 74777:1 82404:1 98756:1 
18.52220933299796 0 36292:1 56685:1 72826:1 72846:1 72864:1 73418:1 80676:1 98752:1 
12.06523136899066 0 42838:1 56541:1 72830:1 72845:1 72864:1 73559:1 82164:1 98752:1 
0 1.127604936299123 19681:1 38067:1 54820:1 72805:1 72824:1 72851:1 76242:1 86346:1 98751:1 
37.45788170077826 2.734728172530999 17168:1 42843:1 54815:1 72806:1 72828:1 72849:1 72864:1 76245:1 86350:1 98752:1 
11.85865692431577 0 38333:1 55063:1 72826:1 72847:1 72864:1 73238:1 81951:1 98752:1 
14.85772001631823 0 42848:1 56626:1 72824:1 72846:1 72864:1 74410:1 85507:1 98752:1 
0 4.101074402814342 23023:1 38153:1 61205:1 72805:1 72826:1 72845:1 76247:1 86356:1 98752:1 
5.154272690298454 0 42853:1 54821:1 72824:1 72852:1 72864:1 73894:1 86361:1 98752:1 
0 12.37089998594707 23878:1 36282:1 54938:1 72805:1 72832:1 72845:1 74016:1 86362:1 98752:1 
0 6.567932651985875 19:1 23880:1 36275:1 72786:1 72805:1 72829:1 75608:1 86364:1 98752:1 
15.76232645337293 0 36309:1 61210:1 72826:1 72848:1 72864:1 76249:1 86337:1 98752:1 
0 4.246066979389894 62:1 23884:1 40614:1 55691:1 72786:1 72805:1 72824:1 72845:1 72881:1 79643:1 98759:1 
0 6.566785111906147 14:1 21572:1 36275:1 72791:1 72805:1 72829:1 75449:1 80569:1 98752:1 
0 6.679740961191746 13:1 17837:1 36281:1 56188:1 72790:1 72805:1 72831:1 72846:1 73285:1 80074:1 98752:1 
14.69535066947981 0 36292:1 55483:1 72826:1 72845:1 72864:1 73238:1 86373:1 98752:1 
0 4.659715682112264 29:1 17156:1 42866:1 54820:1 72789:1 72804:1 72824:1 72851:1 74016:1 81125:1 98756:1 
0 4.229869490354165 7:1 18642:1 36281:1 54857:1 72784:1 72809:1 72831:1 72853:1 72902:1 86342:1 98752:1 
0 8.498125635843419 625:1 23886:1 36275:1 72785:1 72805:1 72829:1 72864:1 73980:1 79751:1 98752:1 
0 34.29489267084031 17837:1 36281:1 54857:1 72805:1 72831:1 72853:1 72864:1 73980:1 79751:1 98752:1 
22.42631411919708 1.798630552481767 36282:1 54885:1 72832:1 72850:1 72864:1 74070:1 86374:1 98752:1 
10.81845028251941 9.305214516252386 6065:1 17479:1 36281:1 61226:1 72785:1 72817:1 72831:1 72845:1 72864:1 72903:1 86369:1 98752:1 
16.81365460079786 0 36292:1 61228:1 72826:1 72845:1 72864:1 75025:1 81075:1 98752:1 
6.650026030886931 0 36320:1 54911:1 72833:1 72846:1 72864:1 72903:1 81519:1 98752:1 
0 15.58790081284439 6079:1 22946:1 37525:1 54820:1 72785:1 72805:1 72824:1 72851:1 72886:1 79648:1 98753:1 
0 9.068333807829486 19:1 18430:1 36282:1 56669:1 72786:1 72805:1 72832:1 72846:1 72880:1 79642:1 98758:1 
0 0.321355100121257 6089:1 23926:1 36287:1 61254:1 72785:1 72805:1 72825:1 72845:1 72881:1 79643:1 98759:1 
0 35.46737036472929 373:1 17879:1 36275:1 72786:1 72805:1 72829:1 75121:1 86412:1 98752:1 
0 0.1216714006253405 6079:1 23932:1 37525:1 54815:1 72785:1 72805:1 72824:1 72849:1 72886:1 79648:1 98753:1 
0 1.610233690955231 1405:1 23934:1 42910:1 54821:1 72789:1 72805:1 72824:1 72852:1 72886:1 79648:1 98753:1 
11.75013135337271 0 17350:1 42825:1 61185:1 72816:1 72828:1 72845:1 72864:1 72972:1 79733:1 98751:1 
0 22.78283174779264 190:1 17253:1 42826:1 55000:1 72796:1 72804:1 72824:1 72856:1 76237:1 86331:1 98756:1 
17.76062501712939 0 36311:1 57405:1 72825:1 72845:1 72864:1 72902:1 86342:1 98752:1 
0 6.803637560603636 2882:1 17253:1 38959:1 54826:1 72787:1 72804:1 72824:1 72844:1 72967:1 79728:1 98756:1 
0 1.135976690930825 19:1 22427:1 36281:1 54821:1 72786:1 72805:1 72831:1 72852:1 76266:1 86431:1 98751:1 
0 27.26475306227649 19:1 17253:1 38959:1 55462:1 72786:1 72804:1 72824:1 72860:1 72973:1 79734:1 98756:1 
0 5.298874653313425 19:1 23844:1 36503:1 54815:1 72786:1 72805:1 72824:1 72849:1 73920:1 80929:1 98751:1 
23.31258969549187 0 42837:1 54831:1 72824:1 72846:1 72864:1 73526:1 86429:1 98752:1 
0 10.84267430868219 23:1 23828:1 37837:1 61281:1 72787:1 72805:1 72828:1 72845:1 72966:1 79639:1 98751:1 
12.60739095720593 0 42806:1 54935:1 72824:1 72846:1 72864:1 73127:1 80531:1 98752:1 
0 0.9622124723637385 19:1 23963:1 36579:1 61181:1 72786:1 72805:1 72826:1 72845:1 76275:1 86447:1 98751:1 
0 2.01130320735864 23:1 19892:1 42942:1 56785:1 72787:1 72805:1 72824:1 72846:1 72905:1 79664:1 98753:1 
0 1.7703293110483 34:1 23967:1 36275:1 72786:1 72805:1 72829:1 73101:1 81710:1 98754:1 
7.553794896388185 0 6137:1 17162:1 36281:1 56340:1 72785:1 72810:1 72831:1 72845:1 74082:1 81138:1 98752:1 
0 1.321364237195456 7:1 17740:1 42971:1 54911:1 72788:1 72804:1 72824:1 72846:1 73604:1 81318:1 98752:1 
3.985674558503056 0 65:1 17835:1 37434:1 55384:1 72784:1 72804:1 72829:1 72845:1 72864:1 72992:1 79751:1 98752:1 
3.819463207656292 0 92:1 17415:1 36282:1 55010:1 72786:1 72808:1 72832:1 72846:1 74425:1 81686:1 98752:1 
0.3380714141711861 0 36281:1 54902:1 72831:1 72854:1 72864:1 76301:1 86511:1 98765:1 
0 7.529685286516101 34:1 17962:1 36269:1 54820:1 72786:1 72805:1 72824:1 72851:1 72972:1 79733:1 98751:1 
0 3.505823208508804 1723:1 17253:1 36281:1 54821:1 72785:1 72804:1 72831:1 72852:1 72889:1 79629:1 98752:1 
0 4.011200892251735 7:1 17311:1 36333:1 55642:1 72788:1 72805:1 72835:1 72846:1 73963:1 86515:1 98752:1 
0 1.775499235995303 373:1 24034:1 43001:1 54869:1 72786:1 72805:1 72824:1 72844:1 72991:1 79750:1 98753:1 
2.6050805318844 0 4536:1 17168:1 36283:1 54897:1 72785:1 72806:1 72833:1 72847:1 72864:1 73125:1 79751:1 98752:1 
29.27923759975958 5.000134529115828 41217:1 54820:1 72824:1 72851:1 72864:1 74023:1 83719:1 98752:1 
0 8.054399082890138 21236:1 36281:1 54869:1 72805:1 72831:1 72852:1 73558:1 84669:1 98752:1 
0 6.395406184220922 4120:1 17156:1 42972:1 54815:1 72799:1 72808:1 72824:1 72849:1 73304:1 80094:1 98753:1 
9.062116572376459 0 36287:1 56101:1 72825:1 72845:1 72864:1 73741:1 80663:1 98752:1 
0 0.6059427761015131 18181:1 37279:1 54823:1 72805:1 72824:1 72846:1 72886:1 79648:1 98753:1 
0 0.07379969108238013 5:1 18414:1 36275:1 72787:1 72805:1 72829:1 74467:1 81796:1 98756:1 
8.707280077914318 0 37535:1 54960:1 72824:1 72846:1 72864:1 72972:1 79733:1 98751:1 
0 1.365750332527029 59:1 17617:1 37997:1 54851:1 72793:1 72805:1 72824:1 72852:1 72905:1 79664:1 98753:1 
0 7.517038585633703 41:1 18374:1 36653:1 54826:1 72786:1 72805:1 72826:1 72844:1 72881:1 79643:1 98759:1 
0 8.058852430787841 41:1 24092:1 36270:1 54820:1 72786:1 72805:1 72825:1 72851:1 72889:1 79629:1 98752:1 
0 0.1665107176411285 19:1 20975:1 36287:1 54880:1 72786:1 72805:1 72825:1 72850:1 72881:1 79643:1 98759:1 
0 3.549544071011059 111:1 17215:1 36275:1 72785:1 72815:1 72829:1 76322:1 86586:1 98766:1 
0 17.10558663402239 7:1 17460:1 36512:1 54899:1 72788:1 72805:1 72824:1 72853:1 73345:1 80317:1 98751:1 
0 20.67624803979533 190:1 17388:1 38487:1 55000:1 72796:1 72804:1 72824:1 72856:1 72905:1 79664:1 98753:1 
3.471927772376677 0 36292:1 54830:1 72826:1 72847:1 72864:1 73694:1 84628:1 98752:1 
60.18041162433253 1.819799165010667 39:1 19371:1 36275:1 72787:1 72809:1 72829:1 72864:1 72867:1 86624:1 98752:1 
0 34.02312848082944 39:1 17159:1 36320:1 55950:1 72787:1 72804:1 72833:1 72846:1 73625:1 79649:1 98752:1 
0 0.03906854783606529 9:1 17208:1 41145:1 54820:1 72786:1 72805:1 72824:1 72851:1 72932:1 79694:1 98753:1 
0 0.148731776574595 17156:1 36993:1 59564:1 72808:1 72824:1 72845:1 72895:1 79652:1 98754:1 
0 5.636377632780002 23:1 17884:1 36281:1 54816:1 72787:1 72805:1 72831:1 72844:1 76343:1 84628:1 98752:1 
0 31.42792784334446 6286:1 24182:1 36275:1 72785:1 72805:1 72829:1 75614:1 86666:1 98752:1 
2.785690286562956 1.151590142208443 6326:1 17168:1 43165:1 55247:1 72785:1 72806:1 72824:1 72844:1 72864:1 73453:1 80338:1 98756:1 
17.73269545974194 7.410573049288231 19:1 17856:1 36724:1 54885:1 72786:1 72809:1 72825:1 72850:1 72864:1 74116:1 86676:1 98752:1 
0 6.135633400328283 29:1 17896:1 36275:1 72789:1 72805:1 72829:1 74402:1 81620:1 98752:1 
9.06861608812077 0 36287:1 54887:1 72825:1 72845:1 72864:1 74562:1 79712:1 98752:1 
0 6.592573466009857 6318:1 24185:1 36520:1 54817:1 72785:1 72805:1 72834:1 72850:1 73402:1 80729:1 98754:1 
17.50092955872358 0 36275:1 72829:1 72864:1 74207:1 86680:1 98752:1 
0 0.5351993787933067 91:1 17253:1 43169:1 54820:1 72792:1 72804:1 72824:1 72851:1 73247:1 79812:1 98756:1 
18.39651641182507 0.3123470145280179 13:1 17163:1 36292:1 57581:1 72790:1 72811:1 72826:1 72848:1 72864:1 73564:1 86688:1 98752:1 
45.12110389193538 0 479:1 17184:1 36275:1 72788:1 72806:1 72829:1 72864:1 72918:1 86691:1 98752:1 
0 2.808257985012297 6286:1 24238:1 36919:1 54851:1 72785:1 72805:1 72841:1 72852:1 74014:1 80232:1 98754:1 
0 2.162263133572897 6359:1 24240:1 36742:1 55208:1 72785:1 72805:1 72834:1 72850:1 72881:1 79643:1 98759:1 
0 7.321409469594271 29:1 21200:1 36282:1 55088:1 72789:1 72805:1 72832:1 72848:1 73023:1 83256:1 98752:1 
0 7.03283732773046 163:1 19367:1 36332:1 54817:1 72784:1 72805:1 72825:1 72850:1 73765:1 80050:1 98752:1 
10.27272253667066 4.566953453503706 36282:1 61548:1 72832:1 72845:1 72864:1 73553:1 86737:1 98752:1 
9.786305283912997 0 36277:1 54908:1 72825:1 72850:1 72864:1 73278:1 82383:1 98752:1 
0 6.563661424994769 142:1 24264:1 43232:1 54831:1 72786:1 72805:1 72824:1 72846:1 72881:1 79643:1 98759:1 
32.35585448854191 0 36379:1 54816:1 72826:1 72844:1 72864:1 73160:1 86750:1 98752:1 
15.54826675455171 0 36275:1 72829:1 72864:1 75544:1 86755:1 98752:1 
0 3.931556797043886 23:1 18189:1 36287:1 56137:1 72787:1 72805:1 72825:1 72845:1 74971:1 82809:1 98761:1 
25.57358908304917 3.226699550931686 2275:1 17331:1 36656:1 54843:1 72785:1 72806:1 72834:1 72844:1 72864:1 73138:1 86761:1 98752:1 
16.72598247942516 0 36281:1 61591:1 72831:1 72845:1 72864:1 72994:1 86762:1 98752:1 
0 3.784648517087821 37:1 17156:1 39927:1 55156:1 72792:1 72804:1 72824:1 72846:1 74135:1 81209:1 98756:1 
15.24674980899337 0 36656:1 54843:1 72834:1 72844:1 72864:1 75790:1 84945:1 98752:1 
22.36667427991417 0 23:1 17192:1 36332:1 61597:1 72787:1 72806:1 72825:1 72845:1 72864:1 74146:1 81225:1 98752:1 
0 16.18493164220379 41:1 18742:1 43251:1 61598:1 72786:1 72805:1 72824:1 72845:1 72932:1 79694:1 98753:1 
0.06553150130820345 0 36311:1 59568:1 72825:1 72845:1 72864:1 72868:1 86775:1 98752:1 
17.50000068408117 5.843068454803507 36275:1 72829:1 72864:1 76397:1 86779:1 98752:1 
0 2.171267959688562 6414:1 24298:1 36282:1 55000:1 72785:1 72805:1 72832:1 72856:1 73408:1 80229:1 98768:1 
0 3.278675023441089 6415:1 17747:1 36464:1 56137:1 72785:1 72821:1 72836:1 72845:1 72881:1 79643:1 98759:1 
0 2.767673657137069 190:1 18552:1 36854:1 61609:1 72796:1 72805:1 72839:1 72845:1 73070:1 79830:1 98763:1 
12.85814465948388 0 36275:1 72829:1 72864:1 75118:1 86784:1 98752:1 
5.068038400936191 0 36282:1 61482:1 72832:1 72845:1 72864:1 74734:1 82326:1 98752:1 
